{"learner":{"attributes":{"scikit_learn":"{\"_estimator_type\": \"classifier\"}"},"feature_names":["Flow Duration","Total Fwd Packets","Total Backward Packets","Total Length of Fwd Packets","Fwd Packet Length Max","Flow Bytes/s","Flow Packets/s","Idle Mean","Active Mean","Protocol"],"feature_types":["float","float","float","float","float","float","float","float","float","float"],"gradient_booster":{"model":{"cats":{"enc":[],"feature_segments":[],"sorted_idx":[]},"gbtree_model_param":{"num_parallel_tree":"1","num_trees":"200"},"iteration_indptr":[0,1,2,3,4,5,6,7,8,9,10,11,12,13,14,15,16,17,18,19,20,21,22,23,24,25,26,27,28,29,30,31,32,33,34,35,36,37,38,39,40,41,42,43,44,45,46,47,48,49,50,51,52,53,54,55,56,57,58,59,60,61,62,63,64,65,66,67,68,69,70,71,72,73,74,75,76,77,78,79,80,81,82,83,84,85,86,87,88,89,90,91,92,93,94,95,96,97,98,99,100,101,102,103,104,105,106,107,108,109,110,111,112,113,114,115,116,117,118,119,120,121,122,123,124,125,126,127,128,129,130,131,132,133,134,135,136,137,138,139,140,141,142,143,144,145,146,147,148,149,150,151,152,153,154,155,156,157,158,159,160,161,162,163,164,165,166,167,168,169,170,171,172,173,174,175,176,177,178,179,180,181,182,183,184,185,186,187,188,189,190,191,192,193,194,195,196,197,198,199,200],"tree_info":[0,0,0,0,0,0,0,0,0,0,0,0,0,0,0,0,0,0,0,0,0,0,0,0,0,0,0,0,0,0,0,0,0,0,0,0,0,0,0,0,0,0,0,0,0,0,0,0,0,0,0,0,0,0,0,0,0,0,0,0,0,0,0,0,0,0,0,0,0,0,0,0,0,0,0,0,0,0,0,0,0,0,0,0,0,0,0,0,0,0,0,0,0,0,0,0,0,0,0,0,0,0,0,0,0,0,0,0,0,0,0,0,0,0,0,0,0,0,0,0,0,0,0,0,0,0,0,0,0,0,0,0,0,0,0,0,0,0,0,0,0,0,0,0,0,0,0,0,0,0,0,0,0,0,0,0,0,0,0,0,0,0,0,0,0,0,0,0,0,0,0,0,0,0,0,0,0,0,0,0,0,0,0,0,0,0,0,0,0,0,0,0,0,0,0,0,0,0,0,0],"trees":[{"base_weights":[-1.01550675E-7,8.223724E-1,-2.6885247E0,-2.4786923E0,1.4408813E0,-2.7239509E0,-2.7996087E-1,-8.768265E-1,-2.6139202E0,1.4835415E0,1.2078611E0,-2.7304444E-1,-2.6319356E0,-2.705777E-1,1.543531E0,-2.63209E-1,-7.874465E-1,-1.0374137E0,-2.639841E0,1.494674E0,-2.6235259E0,-2.71904E-1,1.5052204E0,-2.201398E0,-2.7344137E-1,7.76794E-1,1.5608606E-1,-7.138612E-2,-2.5997525E-1,-2.694664E-1,1.399926E-1,-2.6435587E-1,8.310647E-2,1.567451E-1,1.4059888E-1,-2.6784915E-1,-1.5592986E-1,1.5190837E-1,-2.1229906E-1,1.1831162E-1,-2.7205244E-1,7.99766E-3,1.06491685E-1],"categories":[],"categories_nodes":[],"categories_segments":[],"categories_sizes":[],"default_left":[0,0,0,0,0,0,0,0,0,0,0,0,0,0,0,0,0,0,0,0,0,0,0,0,0,0,0,0,0,0,0,0,0,0,0,0,0,0,0,0,0,0,0],"id":0,"left_children":[1,3,5,7,9,11,13,15,17,19,21,-1,23,-1,25,-1,27,29,31,33,35,-1,37,39,-1,41,-1,-1,-1,-1,-1,-1,-1,-1,-1,-1,-1,-1,-1,-1,-1,-1,-1],"loss_changes":[1.2688776E5,8.973261E4,1.1462422E3,1.5E3,3.6614062E2,7.265625E-1,8.7103674E2,8.28645E1,2.5858594E2,1.4341484E3,6.6985166E3,0E0,3.3731445E1,0E0,2.824707E-1,0E0,6.703613E1,4.282672E2,8.336719E1,1.9914062E2,7.9107666E-1,0E0,2.713203E2,3.1657794E2,0E0,8.137646E-1,0E0,0E0,0E0,0E0,0E0,0E0,0E0,0E0,0E0,0E0,0E0,0E0,0E0,0E0,0E0,0E0,0E0],"parents":[2147483647,0,0,1,1,2,2,3,3,4,4,5,5,6,6,7,7,8,8,9,9,10,10,12,12,14,14,16,16,17,17,18,18,19,19,20,20,22,22,23,23,25,25],"right_children":[2,4,6,8,10,12,14,16,18,20,22,-1,24,-1,26,-1,28,30,32,34,36,-1,38,40,-1,42,-1,-1,-1,-1,-1,-1,-1,-1,-1,-1,-1,-1,-1,-1,-1,-1,-1],"split_conditions":[1.5E1,1.2E1,2.3133333E8,2E0,3E0,3.4E1,1.7E1,6E0,2.068795E-1,2.94E2,2.4E1,-2.7304444E-1,7.5426495E6,-2.705777E-1,7.02E2,-2.63209E-1,3E6,6E0,3.8E1,5.657895E5,4.2156772E3,-2.71904E-1,7.9856256E2,1.096434E3,-2.7344137E-1,3E0,1.5608606E-1,-7.138612E-2,-2.5997525E-1,-2.694664E-1,1.399926E-1,-2.6435587E-1,8.310647E-2,1.567451E-1,1.4059888E-1,-2.6784915E-1,-1.5592986E-1,1.5190837E-1,-2.1229906E-1,1.1831162E-1,-2.7205244E-1,7.99766E-3,1.06491685E-1],"split_indices":[4,3,5,0,1,2,9,9,6,0,3,0,7,0,3,0,6,9,2,5,5,0,5,5,0,0,0,0,0,0,0,0,0,0,0,0,0,0,0,0,0,0,0],"split_type":[0,0,0,0,0,0,0,0,0,0,0,0,0,0,0,0,0,0,0,0,0,0,0,0,0,0,0,0,0,0,0,0,0,0,0,0,0,0,0,0,0,0,0],"sum_hessian":[5.7388117E4,4.3946387E4,1.3441733E4,6.934266E3,3.7012117E4,1.3246765E4,1.9496901E2,5.403957E2,6.3938706E3,3.1280123E4,5.731996E3,1.2346801E4,8.999639E2,8.3458786E1,1.11510216E2,2.4805807E1,5.1558984E2,1.0409166E2,6.289779E3,3.11962E4,8.392245E1,4.029205E2,5.3290757E3,1.7734993E2,7.22614E2,3.4774497E0,1.0803277E2,4.968116E2,1.8778227E1,6.18986E1,4.2193054E1,6.2832876E3,6.491239E0,1.7125744E4,1.4070456E4,7.835853E1,5.563919E0,5.30937E3,1.9705547E1,2.3414827E1,1.539351E2,1.3909798E0,2.0864697E0],"tree_param":{"num_deleted":"0","num_feature":"10","num_nodes":"43","size_leaf_vector":"1"}},{"base_weights":[5.0605E-3,7.655031E-1,-2.282171E0,-2.1117938E0,1.3586828E0,-2.310436E0,-2.4680212E-1,-7.725993E-1,-2.2211735E0,1.4002097E0,1.1333789E0,-2.3155712E-1,-2.2374675E0,-2.3000692E-1,1.4611439E0,-2.2500554E-1,-6.9484025E-1,-9.1331047E-1,-2.2418776E0,1.4110878E0,-2.235751E0,-2.307229E-1,1.4217479E0,-1.8838463E0,-2.3187678E-1,7.365117E-1,1.4778213E-1,1.2184366E-2,-8.2639284E-2,-2.292573E-1,1.3192022E-1,-2.2448757E-1,7.758285E-2,1.4836062E-1,1.323198E-1,-2.2566788E-1,-7.349705E-2,1.4600095E-1,4.7741327E-3,1.2244306E-1,-2.3097765E-1,7.542405E-3,1.0151682E-1],"categories":[],"categories_nodes":[],"categories_segments":[],"categories_sizes":[],"default_left":[0,0,0,0,0,0,0,0,0,0,0,0,0,0,0,0,0,0,0,0,0,0,0,0,0,0,0,0,0,0,0,0,0,0,0,0,0,0,0,0,0,0,0],"id":1,"left_children":[1,3,5,7,9,11,13,15,17,19,21,-1,23,-1,25,-1,27,29,31,33,35,-1,37,39,-1,41,-1,-1,-1,-1,-1,-1,-1,-1,-1,-1,-1,-1,-1,-1,-1,-1,-1],"loss_changes":[9.9002055E4,7.29117E4,8.165E2,1.0678555E3,3.2978125E2,6.25E-2,6.8947003E2,6.1954803E1,1.8072656E2,1.185793E3,5.4772593E3,0E0,2.2961426E1,0E0,2.0967102E-1,0E0,5.6686172E1,3.3211978E2,6.1851562E1,1.8805078E2,1.1548767E0,0E0,2.6758105E2,2.4514423E2,0E0,7.3584676E-1,0E0,0E0,0E0,0E0,0E0,0E0,0E0,0E0,0E0,0E0,0E0,0E0,0E0,0E0,0E0,0E0,0E0],"parents":[2147483647,0,0,1,1,2,2,3,3,4,4,5,5,6,6,7,7,8,8,9,9,10,10,12,12,14,14,16,16,17,17,18,18,19,19,20,20,22,22,23,23,25,25],"right_children":[2,4,6,8,10,12,14,16,18,20,22,-1,24,-1,26,-1,28,30,32,34,36,-1,38,40,-1,42,-1,-1,-1,-1,-1,-1,-1,-1,-1,-1,-1,-1,-1,-1,-1,-1,-1],"split_conditions":[1.5E1,1.2E1,2.3133333E8,2E0,3E0,3.4E1,1.7E1,6E0,2.068795E-1,2.94E2,2.4E1,-2.3155712E-1,5.62979E6,-2.3000692E-1,7.02E2,-2.2500554E-1,1E0,6E0,3.8E1,5.657895E5,2.1121588E7,-2.307229E-1,4.469133E0,1.096434E3,-2.3187678E-1,3E0,1.4778213E-1,1.2184366E-2,-8.2639284E-2,-2.292573E-1,1.3192022E-1,-2.2448757E-1,7.758285E-2,1.4836062E-1,1.323198E-1,-2.2566788E-1,-7.349705E-2,1.4600095E-1,4.7741327E-3,1.2244306E-1,-2.3097765E-1,7.542405E-3,1.0151682E-1],"split_indices":[4,3,5,0,1,2,9,9,6,0,3,0,7,0,3,0,0,9,2,5,0,0,6,5,0,0,0,0,0,0,0,0,0,0,0,0,0,0,0,0,0,0,0],"split_type":[0,0,0,0,0,0,0,0,0,0,0,0,0,0,0,0,0,0,0,0,0,0,0,0,0,0,0,0,0,0,0,0,0,0,0,0,0,0,0,0,0,0,0],"sum_hessian":[5.691836E4,4.2716832E4,1.4201525E4,7.3007954E3,3.5416035E4,1.4006878E4,1.9464725E2,5.518824E2,6.748913E3,2.989983E4,5.516207E3,1.3057264E4,9.496145E2,8.823081E1,1.0641644E2,2.619673E1,5.256856E2,1.058762E2,6.643037E3,2.9811252E4,8.857684E1,4.2603775E2,5.0901694E3,1.820308E2,7.675837E2,3.410113E0,1.0300633E2,7.294069E1,4.5274493E2,6.5427635E1,4.0448566E1,6.6366997E3,6.337343E0,1.63252705E4,1.3485982E4,8.68619E1,1.7149397E0,4.9522046E3,1.3796495E2,2.1711777E1,1.6031903E2,1.3879633E0,2.0221498E0],"tree_param":{"num_deleted":"0","num_feature":"10","num_nodes":"43","size_leaf_vector":"1"}},{"base_weights":[7.927651E-3,7.196083E-1,-2.0140414E0,-1.8625065E0,1.2904989E0,-2.0379606E-1,-2.2311907E-1,-6.848004E-1,-1.9582866E0,1.3308314E0,1.0727348E0,-2.0310712E-1,1.3936723E0,-1.9922155E-1,-6.157091E-1,-1.9781183E0,-9.41561E-1,1.3414512E0,-1.9734468E0,-2.0353027E-1,1.3525534E0,6.997372E-1,1.4100897E-1,-5.5271156E-2,-2.1277289E-1,-2.0203486E-1,-1.8120752E-1,-1.8989103E-1,3.7769966E-2,1.4153267E-1,1.2525746E-1,-2.0171113E-1,-1.15364335E-1,1.3909858E-1,4.306935E-3,7.113036E-3,9.704583E-2],"categories":[],"categories_nodes":[],"categories_segments":[],"categories_sizes":[],"default_left":[0,0,0,0,0,0,0,0,0,0,0,0,0,0,0,0,0,0,0,0,0,0,0,0,0,0,0,0,0,0,0,0,0,0,0,0,0],"id":2,"left_children":[1,3,5,7,9,-1,11,13,15,17,19,-1,21,-1,23,25,27,29,31,-1,33,35,-1,-1,-1,-1,-1,-1,-1,-1,-1,-1,-1,-1,-1,-1,-1],"loss_changes":[7.995309E4,6.0583273E4,6.191797E2,8.3806445E2,2.9417578E2,0E0,5.633819E2,4.946881E1,1.3688672E2,9.9895703E2,4.5812993E3,0E0,1.7338562E-1,0E0,4.9736694E1,4.3660156E1,1.694051E2,1.8405469E2,9.434509E-1,0E0,2.4303613E2,6.692805E-1,0E0,0E0,0E0,0E0,0E0,0E0,0E0,0E0,0E0,0E0,0E0,0E0,0E0,0E0,0E0],"parents":[2147483647,0,0,1,1,2,2,3,3,4,4,6,6,7,7,8,8,9,9,10,10,12,12,14,14,15,15,16,16,17,17,18,18,20,20,21,21],"right_children":[2,4,6,8,10,-1,12,14,16,18,20,-1,22,-1,24,26,28,30,32,-1,34,36,-1,-1,-1,-1,-1,-1,-1,-1,-1,-1,-1,-1,-1,-1,-1],"split_conditions":[1.5E1,1.2E1,2.3133333E8,2E0,3E0,-2.0379606E-1,1.7E1,6E0,1.0546492E7,2.94E2,2.4E1,-2.0310712E-1,7.02E2,-1.9922155E-1,3E6,3.305785E4,6E0,5.657895E5,4.2156772E3,-2.0353027E-1,4.469133E0,3E0,1.4100897E-1,-5.5271156E-2,-2.1277289E-1,-2.0203486E-1,-1.8120752E-1,-1.8989103E-1,3.7769966E-2,1.4153267E-1,1.2525746E-1,-2.0171113E-1,-1.15364335E-1,1.3909858E-1,4.306935E-3,7.113036E-3,9.704583E-2],"split_indices":[4,3,5,0,1,0,9,9,7,0,3,0,3,0,6,6,9,5,5,0,6,0,0,0,0,0,0,0,0,0,0,0,0,0,0,0,0],"split_type":[0,0,0,0,0,0,0,0,0,0,0,0,0,0,0,0,0,0,0,0,0,0,0,0,0,0,0,0,0,0,0,0,0,0,0,0,0],"sum_hessian":[5.5559695E4,4.1095715E4,1.4463981E4,7.4404766E3,3.365524E4,1.4273215E4,1.9076723E2,5.602189E2,6.880258E3,2.8391645E4,5.2635947E3,8.993857E1,1.0082865E2,2.6722082E1,5.334968E2,6.747696E3,1.3256198E2,2.830128E4,9.036401E1,4.3422614E2,4.829368E3,3.3384767E0,9.749017E1,5.1346893E2,2.0027884E1,5.370607E3,1.3770891E3,7.656303E1,5.599895E1,1.5446765E4,1.2854516E4,8.440779E1,5.956224E0,4.6916104E3,1.3775821E2,1.3850871E0,1.9533896E0],"tree_param":{"num_deleted":"0","num_feature":"10","num_nodes":"37","size_leaf_vector":"1"}},{"base_weights":[9.63025E-3,6.815836E-1,-1.8232038E0,-1.680454E0,1.2328254E0,-1.8442105E0,-2.0528664E-1,-6.1078733E-1,-1.7686139E0,1.2719344E0,1.0223734E0,-1.8492512E-1,-1.7840277E0,-1.8394284E-1,1.3374941E0,7.2152756E-2,-7.1852875E-1,-7.1748716E-1,-1.7847971E0,1.2823038E0,-1.7851902E0,-1.8420254E-1,1.2942486E0,6.6772455E-1,-1.8474646E0,6.659492E-1,1.3539547E-1,-1.4561477E-1,1.6298536E-2,-6.633527E-2,-1.9034661E-1,-1.8452747E-1,1.2407493E-1,-1.7874879E-1,8.552151E-2,1.3588198E-1,1.1910885E-1,-1.8031788E-1,-5.5169385E-2,1.3333121E-1,3.884887E-3,-1.2358562E-1,1.1349326E-1,-5.8237374E-2,-1.8483673E-1,6.7080692E-3,9.299239E-2],"categories":[],"categories_nodes":[],"categories_segments":[],"categories_sizes":[],"default_left":[0,0,0,0,0,0,0,0,0,0,0,0,0,0,0,0,0,0,0,0,0,0,0,0,0,0,0,0,0,0,0,0,0,0,0,0,0,0,0,0,0,0,0,0,0,0,0],"id":3,"left_children":[1,3,5,7,9,11,13,15,17,19,21,-1,23,-1,25,27,29,31,33,35,37,-1,39,41,43,45,-1,-1,-1,-1,-1,-1,-1,-1,-1,-1,-1,-1,-1,-1,-1,-1,-1,-1,-1,-1,-1],"loss_changes":[6.602819E4,5.1081758E4,4.884453E2,6.989629E2,2.604961E2,1.0078125E0,4.7005698E2,4.175502E1,1.1537305E2,8.5246094E2,3.8881626E3,0E0,1.7630786E2,0E0,1.5933228E-1,1.1084486E1,3.0749268E1,2.3561868E2,4.9498047E1,1.849336E2,1.0260925E0,0E0,2.2346094E2,2.7305607E1,1.7700195E-1,6.117469E-1,0E0,0E0,0E0,0E0,0E0,0E0,0E0,0E0,0E0,0E0,0E0,0E0,0E0,0E0,0E0,0E0,0E0,0E0,0E0,0E0,0E0],"parents":[2147483647,0,0,1,1,2,2,3,3,4,4,5,5,6,6,7,7,8,8,9,9,10,10,12,12,14,14,15,15,16,16,17,17,18,18,19,19,20,20,22,22,23,23,24,24,25,25],"right_children":[2,4,6,8,10,12,14,16,18,20,22,-1,24,-1,26,28,30,32,34,36,38,-1,40,42,44,46,-1,-1,-1,-1,-1,-1,-1,-1,-1,-1,-1,-1,-1,-1,-1,-1,-1,-1,-1,-1,-1],"split_conditions":[1.5E1,1.2E1,2.3133333E8,2E0,3E0,6.48E2,1.7E1,1E0,2.068795E-1,2.94E2,2.4E1,-1.8492512E-1,6.66E2,-1.8394284E-1,7.02E2,6E0,3E6,6E0,3.8E1,5.657895E5,2.1121588E7,-1.8420254E-1,4.469133E0,3.2E1,1.401706E-1,3E0,1.3539547E-1,-1.4561477E-1,1.6298536E-2,-6.633527E-2,-1.9034661E-1,-1.8452747E-1,1.2407493E-1,-1.7874879E-1,8.552151E-2,1.3588198E-1,1.1910885E-1,-1.8031788E-1,-5.5169385E-2,1.3333121E-1,3.884887E-3,-1.2358562E-1,1.1349326E-1,-5.8237374E-2,-1.8483673E-1,6.7080692E-3,9.299239E-2],"split_indices":[4,3,5,0,1,4,9,0,6,0,3,0,4,0,3,9,6,9,2,5,0,0,6,2,6,0,0,0,0,0,0,0,0,0,0,0,0,0,0,0,0,0,0,0,0,0,0],"split_type":[0,0,0,0,0,0,0,0,0,0,0,0,0,0,0,0,0,0,0,0,0,0,0,0,0,0,0,0,0,0,0,0,0,0,0,0,0,0,0,0,0,0,0,0,0,0,0],"sum_hessian":[5.3610617E4,3.9229086E4,1.4381533E4,7.4224204E3,3.1806664E4,1.4197062E4,1.8447166E2,5.6576636E2,6.856654E3,2.6817957E4,4.9887065E3,1.307241E4,1.1246508E3,8.9489975E1,9.49817E1,7.7138565E1,4.8862778E2,1.04651726E2,6.752002E3,2.672788E4,9.007731E1,4.3195694E2,4.5567495E3,2.8125162E1,1.0965256E3,3.2643018E0,9.171739E1,3.484198E0,7.3654366E1,4.683778E2,2.0249966E1,6.644335E1,3.820837E1,6.74545E3,6.5520363E0,1.4527561E4,1.2200319E4,8.8327354E1,1.749958E0,4.4191787E3,1.3757076E2,5.218371E0,2.2906792E1,1.2424693E0,1.0952831E3,1.3823466E0,1.881955E0],"tree_param":{"num_deleted":"0","num_feature":"10","num_nodes":"47","size_leaf_vector":"1"}},{"base_weights":[1.0670436E-2,6.494766E-1,-1.6810199E0,-1.5411853E0,1.1831771E0,-1.6999596E0,-1.9134377E-1,-5.4634625E-1,-1.6254187E0,1.2912091E0,1.1046057E0,-1.7045818E-1,-1.64473E0,-1.6961126E-1,1.2900547E0,-1.7439497E-1,-4.8494232E-1,-6.672923E-1,-1.6399798E0,1.292427E-1,-1.4327864E-1,-3.584333E-1,1.2223839E0,6.180667E-1,-1.7030073E0,6.7429554E-1,1.3105512E-1,-4.3366965E-2,-1.737951E-1,-1.6998118E-1,1.18200205E-1,-1.6424596E-1,7.978187E-2,2.0120258E-2,-1.9035849E-1,1.0121726E-1,1.3091862E-1,1.0414566E-1,-1.3647968E-1,-5.518232E-2,-1.70382E-1,6.9525256E-3,9.326536E-2],"categories":[],"categories_nodes":[],"categories_segments":[],"categories_sizes":[],"default_left":[0,0,0,0,0,0,0,0,0,0,0,0,0,0,0,0,0,0,0,0,0,0,0,0,0,0,0,0,0,0,0,0,0,0,0,0,0,0,0,0,0,0,0],"id":4,"left_children":[1,3,5,7,9,11,13,15,17,19,21,-1,23,-1,25,-1,27,29,31,-1,-1,33,35,37,39,41,-1,-1,-1,-1,-1,-1,-1,-1,-1,-1,-1,-1,-1,-1,-1,-1,-1],"loss_changes":[5.5410184E4,4.3517418E4,3.9621484E2,6.1014844E2,2.5261719E2,7.3828125E-1,3.9803107E2,4.1122574E1,9.268945E1,4.363672E1,2.9873184E3,0E0,1.4614062E2,0E0,2.5280762E-1,0E0,3.4212135E1,1.9737277E2,4.133203E1,0E0,0E0,1.1178033E3,2.914043E2,2.5228981E1,6.37207E-2,7.102518E-1,0E0,0E0,0E0,0E0,0E0,0E0,0E0,0E0,0E0,0E0,0E0,0E0,0E0,0E0,0E0,0E0,0E0],"parents":[2147483647,0,0,1,1,2,2,3,3,4,4,5,5,6,6,7,7,8,8,9,9,10,10,12,12,14,14,16,16,17,17,18,18,21,21,22,22,23,23,24,24,25,25],"right_children":[2,4,6,8,10,12,14,16,18,20,22,-1,24,-1,26,-1,28,30,32,-1,-1,34,36,38,40,42,-1,-1,-1,-1,-1,-1,-1,-1,-1,-1,-1,-1,-1,-1,-1,-1,-1],"split_conditions":[1.5E1,1.2E1,2.3133333E8,2E0,2E0,6.48E2,1.7E1,6E0,2.068795E-1,3E0,1.5E1,-1.7045818E-1,6.66E2,-1.6961126E-1,2E0,-1.7439497E-1,3E6,6E0,3.8E1,1.292427E-1,-1.4327864E-1,3E0,2.255639E4,6.743333E2,1.401706E-1,3.76E2,1.3105512E-1,-4.3366965E-2,-1.737951E-1,-1.6998118E-1,1.18200205E-1,-1.6424596E-1,7.978187E-2,2.0120258E-2,-1.9035849E-1,1.0121726E-1,1.3091862E-1,1.0414566E-1,-1.3647968E-1,-5.518232E-2,-1.70382E-1,6.9525256E-3,9.326536E-2],"split_indices":[4,3,5,0,0,4,9,9,6,1,0,0,4,0,0,0,6,9,2,0,0,0,6,8,6,4,0,0,0,0,0,0,0,0,0,0,0,0,0,0,0,0,0],"split_type":[0,0,0,0,0,0,0,0,0,0,0,0,0,0,0,0,0,0,0,0,0,0,0,0,0,0,0,0,0,0,0,0,0,0,0,0,0,0,0,0,0,0,0],"sum_hessian":[5.1272277E4,3.7218617E4,1.405366E4,7.29073E3,2.9927889E4,1.3877085E4,1.7657478E2,5.697059E2,6.721024E3,1.2594977E4,1.7332912E4,1.2777846E4,1.0992393E3,8.7524536E1,8.905025E1,2.6449108E1,5.432568E2,1.01315E2,6.619709E3,1.2589874E4,5.1032815E0,1.2912303E3,1.6041682E4,2.7358444E1,1.0718809E3,3.9606934E0,8.5089554E1,5.23194E2,2.0062813E1,6.506692E1,3.624809E1,6.613308E3,6.4009376E0,9.4854736E2,3.42683E2,4.6918853E3,1.1349797E4,2.293585E1,4.422594E0,1.2358254E0,1.070645E3,1.5654223E0,2.395271E0],"tree_param":{"num_deleted":"0","num_feature":"10","num_nodes":"43","size_leaf_vector":"1"}},{"base_weights":[1.1320408E-2,6.2053394E-1,-1.5710882E0,-1.4305489E0,1.1367081E0,-1.5884947E0,-1.8007122E-1,-4.9070105E-1,-1.5130131E0,1.2468969E0,1.0572817E0,-1.5928319E-1,-1.53664E0,-1.585113E-1,1.2490699E0,-1.617559E-1,-4.3463942E-1,-1.5283164E0,-7.184831E-1,1.24810316E-1,-1.3466743E-1,-3.1868014E-1,1.1762296E0,5.7128346E-1,-1.5913699E0,5.7065797E-1,1.2674806E-1,1.8871006E-2,-5.326826E-2,-1.570356E-1,-1.3640647E-1,8.226542E-2,-1.3132386E-1,1.829527E-2,-1.6175537E-1,9.57536E-2,1.268624E-1,9.5430605E-2,-1.4853667E-1,-5.2332964E-2,-1.5921317E-1,1.2453727E-3,8.433129E-2],"categories":[],"categories_nodes":[],"categories_segments":[],"categories_sizes":[],"default_left":[0,0,0,0,0,0,0,0,0,0,0,0,0,0,0,0,0,0,0,0,0,0,0,0,0,0,0,0,0,0,0,0,0,0,0,0,0,0,0,0,0,0,0],"id":5,"left_children":[1,3,5,7,9,11,13,15,17,19,21,-1,23,-1,25,-1,27,29,31,-1,-1,33,35,37,39,41,-1,-1,-1,-1,-1,-1,-1,-1,-1,-1,-1,-1,-1,-1,-1,-1,-1],"loss_changes":[4.7023887E4,3.728907E4,3.2801562E2,5.481172E2,2.4494531E2,5.6640625E-1,3.4073773E2,3.5477722E1,7.805469E1,3.8539062E1,2.6777383E3,0E0,1.2342529E2,0E0,3.2829285E-1,0E0,3.3527176E1,4.19541E1,1.1556745E2,0E0,0E0,8.4889246E2,3.0303125E2,2.3167866E1,9.277344E-3,6.048913E-1,0E0,0E0,0E0,0E0,0E0,0E0,0E0,0E0,0E0,0E0,0E0,0E0,0E0,0E0,0E0,0E0,0E0],"parents":[2147483647,0,0,1,1,2,2,3,3,4,4,5,5,6,6,7,7,8,8,9,9,10,10,12,12,14,14,16,16,17,17,18,18,21,21,22,22,23,23,24,24,25,25],"right_children":[2,4,6,8,10,12,14,16,18,20,22,-1,24,-1,26,-1,28,30,32,-1,-1,34,36,38,40,42,-1,-1,-1,-1,-1,-1,-1,-1,-1,-1,-1,-1,-1,-1,-1,-1,-1],"split_conditions":[1.5E1,1.2E1,2.3133333E8,2E0,2E0,6.48E2,1.7E1,6E0,1.0546492E7,3E0,1.5E1,-1.5928319E-1,6.66E2,-1.585113E-1,7.02E2,-1.617559E-1,1E0,3.305785E4,1.8709976E7,1.24810316E-1,-1.3466743E-1,3E0,2.255639E4,1.096434E3,1.401706E-1,3E0,1.2674806E-1,1.8871006E-2,-5.326826E-2,-1.570356E-1,-1.3640647E-1,8.226542E-2,-1.3132386E-1,1.829527E-2,-1.6175537E-1,9.57536E-2,1.268624E-1,9.5430605E-2,-1.4853667E-1,-5.2332964E-2,-1.5921317E-1,1.2453727E-3,8.433129E-2],"split_indices":[4,3,5,0,0,4,9,9,7,1,0,0,4,0,3,0,0,6,7,0,0,0,6,5,6,0,0,0,0,0,0,0,0,0,0,0,0,0,0,0,0,0,0],"split_type":[0,0,0,0,0,0,0,0,0,0,0,0,0,0,0,0,0,0,0,0,0,0,0,0,0,0,0,0,0,0,0,0,0,0,0,0,0,0,0,0,0,0,0],"sum_hessian":[4.87767E4,3.5218492E4,1.3558206E4,7.080695E3,2.8137799E4,1.3390502E4,1.6770386E2,5.717207E2,6.508974E3,1.1780273E4,1.6357525E4,1.2329528E4,1.0609734E3,8.4509895E1,8.3193954E1,2.5775305E1,5.4594543E2,6.38507E3,1.2390415E2,1.1775315E4,4.9579215E0,1.3014121E3,1.5056113E4,2.6610985E1,1.0343623E3,3.0433998E0,8.015055E1,7.407279E1,4.7187265E2,5.077054E3,1.3080159E3,3.4395348E1,8.9508804E1,9.3944995E2,3.6196213E2,4.475105E3,1.0581008E4,2.2884968E1,3.726018E0,1.2276623E0,1.0331346E3,1.3418717E0,1.7015282E0],"tree_param":{"num_deleted":"0","num_feature":"10","num_nodes":"43","size_leaf_vector":"1"}},{"base_weights":[1.1695426E-2,5.950008E-1,-1.4837896E0,-1.3392733E0,1.0951229E0,-1.5000144E0,-1.7086583E-1,-4.4116148E-1,-1.4215139E0,1.208326E0,1.01434E0,-1.5041578E0,-1.4504579E0,-1.4968239E-1,1.2139136E0,-1.517639E-1,-3.8968927E-1,-5.616399E-1,-1.4346904E0,1.2095236E-1,-1.2740105E-1,-2.8485736E-1,1.1347758E0,-1.5071045E-1,-1.4361079E0,5.269552E-1,-1.5027444E-1,5.861223E-1,1.23635925E-1,-3.433011E-2,-1.5757826E-1,-1.516684E-1,1.1332869E-1,-1.4758867E-1,-1.2740836E-1,1.6622763E-2,-1.400954E-1,9.063998E-2,1.2337761E-1,-1.4769375E-1,2.2872984E-1,9.396253E-2,-1.2961833E-1,1.2820002E-3,8.5526995E-2],"categories":[],"categories_nodes":[],"categories_segments":[],"categories_sizes":[],"default_left":[0,0,0,0,0,0,0,0,0,0,0,0,0,0,0,0,0,0,0,0,0,0,0,0,0,0,0,0,0,0,0,0,0,0,0,0,0,0,0,0,0,0,0,0,0],"id":6,"left_children":[1,3,5,7,9,11,13,15,17,19,21,23,25,-1,27,-1,29,31,33,-1,-1,35,37,-1,39,41,-1,43,-1,-1,-1,-1,-1,-1,-1,-1,-1,-1,-1,-1,-1,-1,-1,-1,-1],"loss_changes":[4.0266258E4,3.2125379E4,2.756543E2,5.0329688E2,2.4006836E2,4.4140625E-1,2.9420142E2,3.1201378E1,7.000488E1,3.41875E1,2.410583E3,1.9726562E-1,1.057522E2,0E0,3.807068E-1,0E0,2.9662544E1,1.5706451E2,3.8842773E1,0E0,0E0,6.585552E2,3.1761328E2,0E0,8.093396E1,2.1450153E1,0E0,7.0024824E-1,0E0,0E0,0E0,0E0,0E0,0E0,0E0,0E0,0E0,0E0,0E0,0E0,0E0,0E0,0E0,0E0,0E0],"parents":[2147483647,0,0,1,1,2,2,3,3,4,4,5,5,6,6,7,7,8,8,9,9,10,10,11,11,12,12,14,14,16,16,17,17,18,18,21,21,22,22,24,24,25,25,27,27],"right_children":[2,4,6,8,10,12,14,16,18,20,22,24,26,-1,28,-1,30,32,34,-1,-1,36,38,-1,40,42,-1,44,-1,-1,-1,-1,-1,-1,-1,-1,-1,-1,-1,-1,-1,-1,-1,-1,-1],"split_conditions":[1.5E1,1.2E1,2.3133333E8,2E0,2E0,6.48E2,1.7E1,6E0,2.068795E-1,3E0,1.5E1,3.7E7,6.66E2,-1.4968239E-1,2E0,-1.517639E-1,3E6,6E0,3.305785E4,1.2095236E-1,-1.2740105E-1,3E0,2.255639E4,-1.5071045E-1,8.08E2,6.743333E2,-1.5027444E-1,3.76E2,1.23635925E-1,-3.433011E-2,-1.5757826E-1,-1.516684E-1,1.1332869E-1,-1.4758867E-1,-1.2740836E-1,1.6622763E-2,-1.400954E-1,9.063998E-2,1.2337761E-1,-1.4769375E-1,2.2872984E-1,9.396253E-2,-1.2961833E-1,1.2820002E-3,8.5526995E-2],"split_indices":[4,3,5,0,0,4,9,9,6,1,0,5,4,0,0,0,6,9,6,0,0,0,6,0,3,8,0,4,0,0,0,0,0,0,0,0,0,0,0,0,0,0,0,0,0],"split_type":[0,0,0,0,0,0,0,0,0,0,0,0,0,0,0,0,0,0,0,0,0,0,0,0,0,0,0,0,0,0,0,0,0,0,0,0,0,0,0,0,0,0,0,0,0],"sum_hessian":[4.615771E4,3.320636E4,1.295135E4,6.8215664E3,2.6384795E4,1.2793112E4,1.5823697E2,5.7278705E2,6.2487793E3,1.0981783E4,1.5403012E4,1.1778943E4,1.01416974E3,8.0793976E1,7.744299E1,2.4838387E1,5.4794867E2,9.496764E1,6.153812E3,1.0977001E4,4.782623E0,1.3066104E3,1.4096401E4,1.1269792E4,5.0915118E2,2.5891867E1,9.882779E2,3.6091945E0,7.38338E1,5.285659E2,1.9382793E1,6.080876E1,3.415888E1,4.89105E3,1.2627618E3,9.3113226E2,3.7547815E2,4.2659004E3,9.830501E3,5.0422537E2,4.925825E0,2.1508091E1,4.3837767E0,1.487773E0,2.1214216E0],"tree_param":{"num_deleted":"0","num_feature":"10","num_nodes":"45","size_leaf_vector":"1"}},{"base_weights":[1.1881398E-2,5.721835E-1,-1.4130105E0,-1.2629883E0,1.0573487E0,-1.4283085E0,-1.6308504E-1,-3.978632E-1,-1.3461231E0,1.1743295E0,9.7479904E-1,-1.4319931E0,-1.3760371E0,-1.4251116E-1,1.1828071E0,-1.4367186E-1,-3.5043582E-1,-1.3605978E0,-6.0998917E-1,1.1755208E-1,-1.21163405E-1,1.0954189E0,-2.7463916E-1,-1.4348958E-1,-1.364452E0,-1.1134778E0,-1.4384064E-1,4.8703858E-1,1.2039013E-1,2.0336838E-2,-4.3736234E-2,-1.4032589E-1,-1.19681455E-1,-1.0246148E-1,1.230061E-1,8.580981E-2,1.200886E-1,1.5091963E-2,-1.3907959E-1,-1.417297E-1,9.2965946E-2,1.0535826E-1,-1.4336891E-1,-3.4671407E-3,7.6990925E-2],"categories":[],"categories_nodes":[],"categories_segments":[],"categories_sizes":[],"default_left":[0,0,0,0,0,0,0,0,0,0,0,0,0,0,0,0,0,0,0,0,0,0,0,0,0,0,0,0,0,0,0,0,0,0,0,0,0,0,0,0,0,0,0,0,0],"id":7,"left_children":[1,3,5,7,9,11,13,15,17,19,21,23,25,-1,27,-1,29,31,33,-1,-1,35,37,-1,39,41,-1,43,-1,-1,-1,-1,-1,-1,-1,-1,-1,-1,-1,-1,-1,-1,-1,-1,-1],"loss_changes":[3.47246E4,2.7797078E4,2.344961E2,4.6897266E2,2.3729297E2,3.671875E-1,2.5571786E2,2.776461E1,6.2625E1,3.0445312E1,2.1828438E3,2.5976562E-1,1.1894653E1,0E0,4.8388672E-1,0E0,2.6566536E1,3.9123047E1,9.0260056E1,0E0,0E0,3.2953906E2,6.0620044E2,0E0,6.02547E1,1.1435785E2,0E0,5.91196E-1,0E0,0E0,0E0,0E0,0E0,0E0,0E0,0E0,0E0,0E0,0E0,0E0,0E0,0E0,0E0,0E0,0E0],"parents":[2147483647,0,0,1,1,2,2,3,3,4,4,5,5,6,6,7,7,8,8,9,9,10,10,11,11,12,12,14,14,16,16,17,17,18,18,21,21,22,22,24,24,25,25,27,27],"right_children":[2,4,6,8,10,12,14,16,18,20,22,24,26,-1,28,-1,30,32,34,-1,-1,36,38,-1,40,42,-1,44,-1,-1,-1,-1,-1,-1,-1,-1,-1,-1,-1,-1,-1,-1,-1,-1,-1],"split_conditions":[1.5E1,1.2E1,2.3133333E8,2E0,2E0,3.4E1,1.7E1,6E0,1.0546492E7,3E0,4E6,3.7E7,7.5426495E6,-1.4251116E-1,7.02E2,-1.4367186E-1,1E0,3.305785E4,1E0,1.1755208E-1,-1.21163405E-1,2.255639E4,3E0,-1.4348958E-1,2.97E2,1.096434E3,-1.4384064E-1,3E0,1.2039013E-1,2.0336838E-2,-4.3736234E-2,-1.4032589E-1,-1.19681455E-1,-1.0246148E-1,1.230061E-1,8.580981E-2,1.200886E-1,1.5091963E-2,-1.3907959E-1,-1.417297E-1,9.2965946E-2,1.0535826E-1,-1.4336891E-1,-3.4671407E-3,7.6990925E-2],"split_indices":[4,3,5,0,0,2,9,9,7,1,5,5,7,0,3,0,0,6,2,0,0,6,0,0,4,5,0,0,0,0,0,0,0,0,0,0,0,0,0,0,0,0,0,0,0],"split_type":[0,0,0,0,0,0,0,0,0,0,0,0,0,0,0,0,0,0,0,0,0,0,0,0,0,0,0,0,0,0,0,0,0,0,0,0,0,0,0,0,0,0,0,0,0],"sum_hessian":[4.3492363E4,3.1217486E4,1.2274875E4,6.52701E3,2.4690477E4,1.2126317E4,1.4855817E2,5.72736E2,5.9542734E3,1.0209465E4,1.4481013E4,1.130315E4,8.2316626E2,7.663738E1,7.192079E1,2.3726866E1,5.4900916E2,5.8386187E3,1.1565489E2,1.0204877E4,4.58747E0,1.3206217E4,1.2747955E3,1.0817999E4,4.851513E2,1.6162358E2,6.6154266E2,2.8251503E0,6.909564E1,7.4301125E1,4.7470804E2,4.626083E3,1.2125355E3,9.474809E1,2.0906796E1,4.0660261E3,9.14019E3,9.235406E2,3.5125497E2,4.7460107E2,1.0550231E1,2.0512564E1,1.4111101E2,1.3017359E0,1.5234144E0],"tree_param":{"num_deleted":"0","num_feature":"10","num_nodes":"45","size_leaf_vector":"1"}},{"base_weights":[1.1938907E-2,5.5140704E-1,-1.3546917E0,-1.1968687E0,1.0225378E0,-1.3692435E0,-1.5652426E-1,-3.5879427E-1,-1.2817546E0,1.1440008E0,9.378784E-1,-1.3731788E0,-1.3221318E0,-1.3658644E-1,1.1556304E0,-1.3698773E-1,-3.149838E-1,-1.2962701E0,-5.6374633E-1,1.14518784E-1,-1.1572679E-1,1.0638622E0,-2.2080807E-1,-1.376199E-1,-1.3038E0,4.793911E-1,-1.3717312E0,5.067537E-1,1.18088126E-1,-2.7269809E-2,-1.4580868E-1,-1.3403559E-1,-1.1290439E-1,7.7718616E-2,-1.09371856E-1,8.142302E-2,1.1789854E-1,1.3692521E-2,-1.0056523E-1,-1.3454862E-1,1.8777004E-1,8.4285386E-2,-1.323216E-1,-3.527698E-2,-1.3726465E-1,-3.640616E-3,7.88111E-2],"categories":[],"categories_nodes":[],"categories_segments":[],"categories_sizes":[],"default_left":[0,0,0,0,0,0,0,0,0,0,0,0,0,0,0,0,0,0,0,0,0,0,0,0,0,0,0,0,0,0,0,0,0,0,0,0,0,0,0,0,0,0,0,0,0,0,0],"id":8,"left_children":[1,3,5,7,9,11,13,15,17,19,21,23,25,-1,27,-1,29,31,33,-1,-1,35,37,-1,39,41,43,45,-1,-1,-1,-1,-1,-1,-1,-1,-1,-1,-1,-1,-1,-1,-1,-1,-1,-1,-1],"loss_changes":[3.0115414E4,2.412408E4,2.0135547E2,4.4185645E2,2.3616602E2,3.0273438E-1,2.2350075E2,2.4959854E1,5.8104492E1,2.7197266E1,1.985585E3,4.0820312E-1,8.174341E1,0E0,5.094528E-1,0E0,2.6222103E1,3.927539E1,8.160521E1,0E0,0E0,3.5157227E2,3.7484482E2,0E0,6.32218E1,1.7531332E1,3.3972168E-1,6.83447E-1,0E0,0E0,0E0,0E0,0E0,0E0,0E0,0E0,0E0,0E0,0E0,0E0,0E0,0E0,0E0,0E0,0E0,0E0,0E0],"parents":[2147483647,0,0,1,1,2,2,3,3,4,4,5,5,6,6,7,7,8,8,9,9,10,10,11,11,12,12,14,14,16,16,17,17,18,18,21,21,22,22,24,24,25,25,26,26,27,27],"right_children":[2,4,6,8,10,12,14,16,18,20,22,24,26,-1,28,-1,30,32,34,-1,-1,36,38,-1,40,42,44,46,-1,-1,-1,-1,-1,-1,-1,-1,-1,-1,-1,-1,-1,-1,-1,-1,-1,-1,-1],"split_conditions":[1.5E1,1.2E1,2.3133333E8,2E0,2E0,6.48E2,1.7E1,6E0,1.0546492E7,3E0,5.657895E5,3.7E7,6.66E2,-1.3658644E-1,2E0,-1.3698773E-1,3E6,3.305785E4,1.8709976E7,1.14518784E-1,-1.1572679E-1,2.255639E4,3E0,-1.376199E-1,8.08E2,1.096434E3,1.401706E-1,3.76E2,1.18088126E-1,-2.7269809E-2,-1.4580868E-1,-1.3403559E-1,-1.1290439E-1,7.7718616E-2,-1.09371856E-1,8.142302E-2,1.1789854E-1,1.3692521E-2,-1.0056523E-1,-1.3454862E-1,1.8777004E-1,8.4285386E-2,-1.323216E-1,-3.527698E-2,-1.3726465E-1,-3.640616E-3,7.88111E-2],"split_indices":[4,3,5,0,0,4,9,9,7,1,5,5,4,0,0,0,6,6,7,0,0,6,0,0,3,5,6,4,0,0,0,0,0,0,0,0,0,0,0,0,0,0,0,0,0,0,0],"split_type":[0,0,0,0,0,0,0,0,0,0,0,0,0,0,0,0,0,0,0,0,0,0,0,0,0,0,0,0,0,0,0,0,0,0,0,0,0,0,0,0,0,0,0,0,0,0,0],"sum_hessian":[4.084609E4,2.928617E4,1.155992E4,6.216477E3,2.3069693E4,1.1421068E4,1.3885162E2,5.722194E2,5.6442573E3,9.470136E3,1.3599557E4,1.0514606E4,9.064618E2,7.223537E1,6.661626E1,2.2507616E1,5.497118E2,5.531623E3,1.1263456E2,9.465756E3,4.380341E0,1.2265963E4,1.333594E3,1.0057957E4,4.5664935E2,2.4055775E1,8.82406E2,3.284429E0,6.333183E1,5.3129663E2,1.841519E1,4.3720156E3,1.1596075E3,3.1773916E1,8.086064E1,3.8739026E3,8.392061E3,9.1662177E2,4.1697217E2,4.5131305E2,5.336308E0,2.0462343E1,3.593432E0,1.1388527E0,8.8126715E2,1.4178594E0,1.8665698E0],"tree_param":{"num_deleted":"0","num_feature":"10","num_nodes":"47","size_leaf_vector":"1"}},{"base_weights":[1.189917E-2,5.322278E-1,-1.3059142E0,-1.1390206E0,9.899773E-1,-1.3198609E0,-1.5078564E-1,-3.2436782E-1,-1.2262783E0,1.0380144E0,7.580192E-1,-1.3283625E0,-1.2977809E0,-1.316217E-1,1.1310437E0,-1.3137333E-1,-2.838463E-1,-4.2856017E-1,-1.2391579E0,1.0538433E0,-2.06353E0,-1.9615467E0,1.0981358E0,-1.2627575E0,-1.3318574E-1,-9.803624E-1,-1.3099849E0,4.12124E-1,1.1555493E-1,-2.4501428E-2,-1.3853896E-1,-1.3550656E-1,1.10294454E-1,-1.2845172E-1,-1.0684901E-1,1.1590268E-1,9.377902E-2,-7.669061E-2,-2.0796879E-1,-1.4242753E-1,-2.1131742E-1,1.1530628E-1,-4.2412717E-2,-1.2894677E-1,2.2597139E-1,2.0435332E-1,-1.0531513E-1,8.028768E-2,-1.3113517E-1,-7.552981E-3,7.057226E-2],"categories":[],"categories_nodes":[],"categories_segments":[],"categories_sizes":[],"default_left":[0,0,0,0,0,0,0,0,0,0,0,0,0,0,0,0,0,0,0,0,0,0,0,0,0,0,0,0,0,0,0,0,0,0,0,0,0,0,0,0,0,0,0,0,0,0,0,0,0,0,0],"id":9,"left_children":[1,3,5,7,9,11,13,15,17,19,21,23,25,-1,27,-1,29,31,33,35,37,39,41,43,-1,45,47,49,-1,-1,-1,-1,-1,-1,-1,-1,-1,-1,-1,-1,-1,-1,-1,-1,-1,-1,-1,-1,-1,-1,-1],"loss_changes":[2.623679E4,2.0986785E4,1.7429492E2,4.1889502E2,2.3916016E2,2.8515625E-1,1.9620628E2,2.2559895E1,5.42041E1,8.7786523E2,3.4228882E3,8.0078125E-2,1.0408691E1,0E0,6.2680054E-1,0E0,2.3220818E1,1.2377443E2,3.921045E1,2.1554883E2,3.0966187E-1,3.05094E1,2.7538965E2,4.129474E1,0E0,2.762564E1,9.438477E0,5.713333E-1,0E0,0E0,0E0,0E0,0E0,0E0,0E0,0E0,0E0,0E0,0E0,0E0,0E0,0E0,0E0,0E0,0E0,0E0,0E0,0E0,0E0,0E0,0E0],"parents":[2147483647,0,0,1,1,2,2,3,3,4,4,5,5,6,6,7,7,8,8,9,9,10,10,11,11,12,12,14,14,16,16,17,17,18,18,19,19,20,20,21,21,22,22,23,23,25,25,26,26,27,27],"right_children":[2,4,6,8,10,12,14,16,18,20,22,24,26,-1,28,-1,30,32,34,36,38,40,42,44,-1,46,48,50,-1,-1,-1,-1,-1,-1,-1,-1,-1,-1,-1,-1,-1,-1,-1,-1,-1,-1,-1,-1,-1,-1,-1],"split_conditions":[1.5E1,1.2E1,2.3133333E8,2E0,3E0,5.2E1,1.7E1,6E0,2.068795E-1,2.94E2,2.4E1,2.9E1,2.0536E4,-1.316217E-1,7.02E2,-1.3137333E-1,3E6,6E0,3.305785E4,5.657895E5,3.96E2,1.5E1,4.469133E0,4.99725E5,-1.3318574E-1,5.3E1,6.7288184E0,3E0,1.1555493E-1,-2.4501428E-2,-1.3853896E-1,-1.3550656E-1,1.10294454E-1,-1.2845172E-1,-1.0684901E-1,1.1590268E-1,9.377902E-2,-7.669061E-2,-2.0796879E-1,-1.4242753E-1,-2.1131742E-1,1.1530628E-1,-4.2412717E-2,-1.2894677E-1,2.2597139E-1,2.0435332E-1,-1.0531513E-1,8.028768E-2,-1.3113517E-1,-7.552981E-3,7.057226E-2],"split_indices":[4,3,5,0,1,4,9,9,6,0,3,4,0,0,3,0,6,9,6,5,0,0,6,0,0,4,5,0,0,0,0,0,0,0,0,0,0,0,0,0,0,0,0,0,0,0,0,0,0,0,0],"split_type":[0,0,0,0,0,0,0,0,0,0,0,0,0,0,0,0,0,0,0,0,0,0,0,0,0,0,0,0,0,0,0,0,0,0,0,0,0,0,0,0,0,0,0,0,0,0,0,0,0,0,0],"sum_hessian":[3.8260992E4,2.7430762E4,1.0830232E4,5.8974863E3,2.1533275E4,1.070089E4,1.2934317E2,5.7102435E2,5.326462E3,1.783606E4,3.6972136E3,7.6833623E3,3.017527E3,6.773348E1,6.160969E1,2.123104E1,5.4979333E2,8.5176476E1,5.2412856E3,1.7746152E4,8.9907616E1,4.1045508E2,3.2867585E3,4.0693665E2,7.276426E3,1.1473296E2,2.9027942E3,2.618175E0,5.8991516E1,5.322526E2,1.7540737E1,5.3142426E1,3.2034054E1,4.135616E3,1.1056696E3,9.304298E3,8.441855E3,1.7030928E0,8.820452E1,9.262928E1,3.178258E2,3.1725283E3,1.1423022E2,4.0450333E2,2.4333267E0,2.0604398E0,1.1267252E2,1.4974318E0,2.9012966E3,1.2630503E0,1.3551247E0],"tree_param":{"num_deleted":"0","num_feature":"10","num_nodes":"51","size_leaf_vector":"1"}},{"base_weights":[1.1837659E-2,5.152233E-1,-1.264084E0,-1.0878161E0,9.6123767E-1,-1.2775166E0,-1.4583308E-1,-2.9347834E-1,-1.1780909E0,1.0947828E0,8.689234E-1,-1.2819885E0,-1.2243615E0,-1.2741072E-1,1.1091994E0,-1.5696785E-1,-2.6419538E-1,-1.1925981E0,-4.8465693E-1,1.0959335E-1,-1.054547E-1,1.0046054E0,-3.1872502E-1,-1.2853163E-1,-1.2060937E0,5.520295E-1,-1.28062E0,4.340892E-1,1.1380853E-1,-1.26588E-1,-2.2479657E-2,-1.2417493E-1,-1.01521924E-1,-1.1810722E-1,4.2817276E-2,7.4273705E-2,1.1307497E-1,3.9966702E-3,-1.2060534E-1,-1.2654428E-1,1.24883294E-1,-9.611041E-2,9.570879E-2,-2.8407672E-2,-1.2816529E-1,-7.921922E-3,7.2807565E-2],"categories":[],"categories_nodes":[],"categories_segments":[],"categories_sizes":[],"default_left":[0,0,0,0,0,0,0,0,0,0,0,0,0,0,0,0,0,0,0,0,0,0,0,0,0,0,0,0,0,0,0,0,0,0,0,0,0,0,0,0,0,0,0,0,0,0,0],"id":10,"left_children":[1,3,5,7,9,11,13,15,17,19,21,23,25,-1,27,-1,29,31,33,-1,-1,35,37,-1,39,41,43,45,-1,-1,-1,-1,-1,-1,-1,-1,-1,-1,-1,-1,-1,-1,-1,-1,-1,-1,-1],"loss_changes":[2.2947621E4,1.8319072E4,1.5164648E2,3.9958887E2,2.461543E2,8.046875E-1,1.729024E2,2.0904911E1,4.979834E1,2.1407227E1,1.9109033E3,7.714844E-1,8.038818E1,0E0,6.344452E-1,0E0,2.1772251E1,4.1498047E1,6.681252E1,0E0,0E0,3.5066797E2,3.8720447E2,0E0,6.0197144E1,1.6349588E1,4.317627E-1,6.599374E-1,0E0,0E0,0E0,0E0,0E0,0E0,0E0,0E0,0E0,0E0,0E0,0E0,0E0,0E0,0E0,0E0,0E0,0E0,0E0],"parents":[2147483647,0,0,1,1,2,2,3,3,4,4,5,5,6,6,7,7,8,8,9,9,10,10,11,11,12,12,14,14,16,16,17,17,18,18,21,21,22,22,24,24,25,25,26,26,27,27],"right_children":[2,4,6,8,10,12,14,16,18,20,22,24,26,-1,28,-1,30,32,34,-1,-1,36,38,-1,40,42,44,46,-1,-1,-1,-1,-1,-1,-1,-1,-1,-1,-1,-1,-1,-1,-1,-1,-1,-1,-1],"split_conditions":[1.5E1,1.2E1,2.3133333E8,2E0,2E0,6.48E2,1.7E1,2E0,1.0546492E7,3E0,4E6,3.7E7,6.66E2,-1.2741072E-1,2E0,-1.5696785E-1,6E0,3.2258064E4,6E0,1.0959335E-1,-1.054547E-1,2.255639E4,3E0,-1.2853163E-1,2.97E2,3.2E1,1.401706E-1,3.76E2,1.1380853E-1,-1.26588E-1,-2.2479657E-2,-1.2417493E-1,-1.01521924E-1,-1.1810722E-1,4.2817276E-2,7.4273705E-2,1.1307497E-1,3.9966702E-3,-1.2060534E-1,-1.2654428E-1,1.24883294E-1,-9.611041E-2,9.570879E-2,-2.8407672E-2,-1.2816529E-1,-7.921922E-3,7.2807565E-2],"split_indices":[4,3,5,0,0,4,9,1,7,1,5,5,4,0,0,0,9,6,9,0,0,6,0,0,4,2,6,4,0,0,0,0,0,0,0,0,0,0,0,0,0,0,0,0,0,0,0],"split_type":[0,0,0,0,0,0,0,0,0,0,0,0,0,0,0,0,0,0,0,0,0,0,0,0,0,0,0,0,0,0,0,0,0,0,0,0,0,0,0,0,0,0,0,0,0,0,0],"sum_hessian":[3.572633E4,2.5619383E4,1.0106945E4,5.5762183E3,2.0043166E4,9.986839E3,1.201064E2,5.6948694E2,5.0067314E3,8.1876953E3,1.185547E4,9.190524E3,7.963142E2,6.323918E1,5.6867214E1,1.1594069E1,5.578929E2,4.9034277E3,1.0330379E2,8.183804E3,3.8909779E0,1.0640058E4,1.2154116E3,8.789207E3,4.0131747E2,2.4174648E1,7.721396E2,2.9909687E0,5.3876247E1,1.9934845E1,5.37958E2,3.8348123E3,1.0686155E3,5.843145E1,4.4872334E1,3.4613582E3,7.1786997E3,8.6621124E2,3.492004E2,3.923175E2,8.999961E0,4.815002E0,1.9359648E1,1.0852132E0,7.710543E2,1.3552313E0,1.6357374E0],"tree_param":{"num_deleted":"0","num_feature":"10","num_nodes":"47","size_leaf_vector":"1"}},{"base_weights":[1.1672902E-2,4.9827376E-1,-1.2288233E0,-1.040974E0,9.3181735E-1,-1.2418419E0,-1.4136997E-1,-2.6548168E-1,-1.1347445E0,1.0714442E0,8.3683014E-1,-1.2463133E0,-1.1886988E0,-1.23800986E-1,1.0889953E0,2.0909734E-1,-3.405894E-1,-1.149406E0,-4.5430154E-1,1.07259534E-1,-1.01672225E-1,9.7875214E-1,-2.6128057E-1,-1.24976434E-1,-1.1679053E0,5.15913E-1,-1.2446645E0,3.4417817E-1,1.1176797E-1,-8.910593E-2,2.5477394E-2,-3.055796E-2,-1.2963198E-1,-1.2010026E-1,-9.627322E-2,-8.35809E-2,1.1616161E-1,7.033799E-2,1.1176503E-1,3.6056123E-3,-8.884158E-2,-1.2284451E-1,1.1055639E-1,8.860699E-2,-1.085911E-1,-2.7083984E-2,-1.24574415E-1,-1.11000985E-2,6.4830765E-2],"categories":[],"categories_nodes":[],"categories_segments":[],"categories_sizes":[],"default_left":[0,0,0,0,0,0,0,0,0,0,0,0,0,0,0,0,0,0,0,0,0,0,0,0,0,0,0,0,0,0,0,0,0,0,0,0,0,0,0,0,0,0,0,0,0,0,0,0,0],"id":11,"left_children":[1,3,5,7,9,11,13,15,17,19,21,23,25,-1,27,29,31,33,35,-1,-1,37,39,-1,41,43,45,47,-1,-1,-1,-1,-1,-1,-1,-1,-1,-1,-1,-1,-1,-1,-1,-1,-1,-1,-1,-1,-1],"loss_changes":[2.0128668E4,1.5984266E4,1.3283203E2,3.8248828E2,2.4695801E2,7.265625E-1,1.5283495E2,2.0358353E1,4.6325195E1,1.9270508E1,1.7342744E3,8.5058594E-1,7.144275E1,0E0,7.5709915E-1,4.166069E0,1.605827E1,4.3112793E1,6.3051315E1,0E0,0E0,3.760879E2,2.3763579E2,0E0,5.3028076E1,1.5369393E1,4.182129E-1,5.4634845E-1,0E0,0E0,0E0,0E0,0E0,0E0,0E0,0E0,0E0,0E0,0E0,0E0,0E0,0E0,0E0,0E0,0E0,0E0,0E0,0E0,0E0],"parents":[2147483647,0,0,1,1,2,2,3,3,4,4,5,5,6,6,7,7,8,8,9,9,10,10,11,11,12,12,14,14,15,15,16,16,17,17,18,18,21,21,22,22,24,24,25,25,26,26,27,27],"right_children":[2,4,6,8,10,12,14,16,18,20,22,24,26,-1,28,30,32,34,36,-1,-1,38,40,-1,42,44,46,48,-1,-1,-1,-1,-1,-1,-1,-1,-1,-1,-1,-1,-1,-1,-1,-1,-1,-1,-1,-1,-1],"split_conditions":[1.5E1,1.2E1,2.3133333E8,2E0,2E0,6.48E2,1.7E1,1E0,1.0546492E7,3E0,5.657895E5,3.7E7,6.66E2,-1.23800986E-1,7.02E2,6E0,3E6,3.305785E4,1E0,1.07259534E-1,-1.01672225E-1,2.255639E4,3E0,-1.24976434E-1,2.97E2,6.743333E2,1.401706E-1,3E0,1.1176797E-1,-8.910593E-2,2.5477394E-2,-3.055796E-2,-1.2963198E-1,-1.2010026E-1,-9.627322E-2,-8.35809E-2,1.1616161E-1,7.033799E-2,1.1176503E-1,3.6056123E-3,-8.884158E-2,-1.2284451E-1,1.1055639E-1,8.860699E-2,-1.085911E-1,-2.7083984E-2,-1.24574415E-1,-1.11000985E-2,6.4830765E-2],"split_indices":[4,3,5,0,0,4,9,0,7,1,5,5,4,0,3,9,6,6,2,0,0,6,0,0,4,8,6,0,0,0,0,0,0,0,0,0,0,0,0,0,0,0,0,0,0,0,0,0,0],"split_type":[0,0,0,0,0,0,0,0,0,0,0,0,0,0,0,0,0,0,0,0,0,0,0,0,0,0,0,0,0,0,0,0,0,0,0,0,0,0,0,0,0,0,0,0,0,0,0,0,0],"sum_hessian":[3.334421E4,2.3950078E4,9.394134E3,5.262997E3,1.8687082E4,9.28286E3,1.1127332E2,5.681511E2,4.6948457E3,7.561601E3,1.112548E4,8.541716E3,7.411442E2,5.8830635E1,5.2442684E1,7.738688E1,4.9076425E2,4.595145E3,9.9700676E1,7.5579204E3,3.68026E0,9.852263E3,1.2732177E3,8.1673037E3,3.7441223E2,2.3298473E1,7.178457E2,2.4268153E0,5.001587E1,2.347101E0,7.503978E1,4.746952E2,1.6069044E1,3.5958254E3,9.993195E2,8.104844E1,1.8652237E1,3.3053362E3,6.546927E3,8.6435364E2,4.0886395E2,3.6514844E2,9.263807E0,1.9288122E1,4.010351E0,1.0738913E0,7.1677185E2,1.2263715E0,1.2004439E0],"tree_param":{"num_deleted":"0","num_feature":"10","num_nodes":"49","size_leaf_vector":"1"}},{"base_weights":[1.1478422E-2,4.8206413E-1,-1.198432E0,-9.977154E-1,9.033688E-1,-1.2111008E0,-1.374482E-1,-2.401223E-1,-1.0953332E0,1.0496525E0,8.055727E-1,-1.220912E0,-1.1857364E0,-1.2067713E-1,1.070746E0,-1.2132869E-1,-2.0557238E-1,-3.2371154E-1,-1.1085156E0,1.0508056E-1,-9.820593E-2,9.46299E-1,-2.6386127E-1,-1.1415172E0,-1.225173E-1,-8.346431E-1,-1.1998318E0,3.6696926E-1,1.104122E-1,-1.4534257E-1,-1.779381E-2,-1.2440764E-1,1.0648125E-1,-1.163095E-1,-9.173481E-2,6.610208E-2,1.0950377E-1,3.2521156E-3,-9.884491E-2,-1.1715751E-1,2.547998E-1,2.1103528E-1,-9.189687E-2,9.714901E-2,-1.2015243E-1,-1.16411215E-2,6.732782E-2],"categories":[],"categories_nodes":[],"categories_segments":[],"categories_sizes":[],"default_left":[0,0,0,0,0,0,0,0,0,0,0,0,0,0,0,0,0,0,0,0,0,0,0,0,0,0,0,0,0,0,0,0,0,0,0,0,0,0,0,0,0,0,0,0,0,0,0],"id":12,"left_children":[1,3,5,7,9,11,13,15,17,19,21,23,25,-1,27,-1,29,31,33,-1,-1,35,37,39,-1,41,43,45,-1,-1,-1,-1,-1,-1,-1,-1,-1,-1,-1,-1,-1,-1,-1,-1,-1,-1,-1],"loss_changes":[1.770106E4,1.3955455E4,1.1685254E2,3.666167E2,2.4841211E2,6.933594E-1,1.3546626E2,1.883282E1,4.4339844E1,1.7379883E1,1.5724355E3,6.875E-1,1.1045166E1,0E0,7.5263214E-1,0E0,1.868266E1,9.745819E1,4.400879E1,0E0,0E0,3.910078E2,2.6108588E2,3.945981E1,0E0,2.6088188E1,9.7595215E0,6.3058966E-1,0E0,0E0,0E0,0E0,0E0,0E0,0E0,0E0,0E0,0E0,0E0,0E0,0E0,0E0,0E0,0E0,0E0,0E0,0E0],"parents":[2147483647,0,0,1,1,2,2,3,3,4,4,5,5,6,6,7,7,8,8,9,9,10,10,11,11,12,12,14,14,16,16,17,17,18,18,21,21,22,22,23,23,25,25,26,26,27,27],"right_children":[2,4,6,8,10,12,14,16,18,20,22,24,26,-1,28,-1,30,32,34,-1,-1,36,38,40,-1,42,44,46,-1,-1,-1,-1,-1,-1,-1,-1,-1,-1,-1,-1,-1,-1,-1,-1,-1,-1,-1],"split_conditions":[1.5E1,1.2E1,2.3133333E8,2E0,2E0,5.2E1,1.7E1,6E0,2.068795E-1,3E0,4E6,2.9E1,2.0536E4,-1.2067713E-1,2E0,-1.2132869E-1,2E0,6E0,3.2258064E4,1.0508056E-1,-9.820593E-2,2.255639E4,3E0,3.1E7,-1.225173E-1,5.3E1,7.2E1,3.76E2,1.104122E-1,-1.4534257E-1,-1.779381E-2,-1.2440764E-1,1.0648125E-1,-1.163095E-1,-9.173481E-2,6.610208E-2,1.0950377E-1,3.2521156E-3,-9.884491E-2,-1.1715751E-1,2.547998E-1,2.1103528E-1,-9.189687E-2,9.714901E-2,-1.2015243E-1,-1.16411215E-2,6.732782E-2],"split_indices":[4,3,5,0,0,4,9,9,6,1,5,4,0,0,0,0,1,9,6,0,0,6,0,5,0,4,3,4,0,0,0,0,0,0,0,0,0,0,0,0,0,0,0,0,0,0,0],"split_type":[0,0,0,0,0,0,0,0,0,0,0,0,0,0,0,0,0,0,0,0,0,0,0,0,0,0,0,0,0,0,0,0,0,0,0,0,0,0,0,0,0,0,0,0,0,0,0],"sum_hessian":[3.108703E4,2.2382229E4,8.704801E3,4.9598853E3,1.7422344E4,8.601946E3,1.02853966E2,5.6653925E2,4.393346E3,6.976757E3,1.0445586E4,6.168694E3,2.4332524E3,5.456335E1,4.829061E1,1.8254324E1,5.482849E2,7.4224846E1,4.3191216E3,6.9732817E3,3.475055E0,9.230998E3,1.214588E3,3.2789893E2,5.840795E3,9.62417E1,2.3370107E3,2.72956E0,4.556105E1,1.0761112E1,5.375238E2,4.4700043E1,2.9524805E1,3.355907E3,9.6321436E2,3.165351E3,6.065647E3,8.626772E2,3.5191083E2,3.2592612E2,1.9728153E0,2.0102208E0,9.4231476E1,1.3739562E0,2.3356367E3,1.2992275E0,1.4303325E0],"tree_param":{"num_deleted":"0","num_feature":"10","num_nodes":"47","size_leaf_vector":"1"}},{"base_weights":[1.1248636E-2,4.664815E-1,-1.1713003E0,-9.5788187E-1,8.757366E-1,-1.1836627E0,-1.338154E-1,-2.1743576E-1,-1.0597695E0,1.0290675E0,7.7511734E-1,-1.1889007E0,-1.121932E0,-1.17950045E-1,1.0534813E0,-1.1785132E-1,-1.8550956E-1,-1.0749035E0,-3.8788298E-1,1.0302239E-1,-9.5000826E-2,9.223169E-1,-2.1564972E-1,-1.1928119E-1,-1.1010042E0,5.7882714E-1,-1.1869692E0,2.821743E-1,1.0871744E-1,-1.5470884E-2,-1.2293338E-1,-1.1336418E-1,-8.707896E-2,7.6897815E-2,-8.894179E-2,6.2444337E-2,1.08600274E-1,2.9327131E-3,-7.315913E-2,-1.1688949E-1,1.0850302E-1,9.00516E-2,-1.145977E-1,-2.1329308E-2,-1.1882379E-1,-1.4174988E-2,5.961391E-2],"categories":[],"categories_nodes":[],"categories_segments":[],"categories_sizes":[],"default_left":[0,0,0,0,0,0,0,0,0,0,0,0,0,0,0,0,0,0,0,0,0,0,0,0,0,0,0,0,0,0,0,0,0,0,0,0,0,0,0,0,0,0,0,0,0,0,0],"id":13,"left_children":[1,3,5,7,9,11,13,15,17,19,21,23,25,-1,27,-1,29,31,33,-1,-1,35,37,-1,39,41,43,45,-1,-1,-1,-1,-1,-1,-1,-1,-1,-1,-1,-1,-1,-1,-1,-1,-1,-1,-1],"loss_changes":[1.5591673E4,1.2191229E4,1.030957E2,3.5193506E2,2.4983691E2,1.2382812E0,1.2033596E2,1.7145052E1,4.1304688E1,1.5702148E1,1.4312891E3,1.2021484E0,7.147949E1,0E0,8.743248E-1,0E0,1.7456858E1,4.71167E1,5.40339E1,0E0,0E0,4.158877E2,1.6055612E2,0E0,4.9455048E1,1.4484091E1,5.085449E-1,5.17437E-1,0E0,0E0,0E0,0E0,0E0,0E0,0E0,0E0,0E0,0E0,0E0,0E0,0E0,0E0,0E0,0E0,0E0,0E0,0E0],"parents":[2147483647,0,0,1,1,2,2,3,3,4,4,5,5,6,6,7,7,8,8,9,9,10,10,11,11,12,12,14,14,16,16,17,17,18,18,21,21,22,22,24,24,25,25,26,26,27,27],"right_children":[2,4,6,8,10,12,14,16,18,20,22,24,26,-1,28,-1,30,32,34,-1,-1,36,38,-1,40,42,44,46,-1,-1,-1,-1,-1,-1,-1,-1,-1,-1,-1,-1,-1,-1,-1,-1,-1,-1,-1],"split_conditions":[1.5E1,1.2E1,2.3133333E8,2E0,2E0,6.48E2,1.7E1,6E0,1.0546492E7,3E0,5.657895E5,3.7E7,6.66E2,-1.17950045E-1,7.02E2,-1.1785132E-1,3E6,3.305785E4,1.8709976E7,1.0302239E-1,-9.5000826E-2,2.255639E4,3E0,-1.1928119E-1,2.97E2,1.096434E3,1.401706E-1,3E0,1.0871744E-1,-1.5470884E-2,-1.2293338E-1,-1.1336418E-1,-8.707896E-2,7.6897815E-2,-8.894179E-2,6.2444337E-2,1.08600274E-1,2.9327131E-3,-7.315913E-2,-1.1688949E-1,1.0850302E-1,9.00516E-2,-1.145977E-1,-2.1329308E-2,-1.1882379E-1,-1.4174988E-2,5.961391E-2],"split_indices":[4,3,5,0,0,4,9,9,7,1,5,5,4,0,3,0,6,6,7,0,0,6,0,0,4,5,6,0,0,0,0,0,0,0,0,0,0,0,0,0,0,0,0,0,0,0,0],"split_type":[0,0,0,0,0,0,0,0,0,0,0,0,0,0,0,0,0,0,0,0,0,0,0,0,0,0,0,0,0,0,0,0,0,0,0,0,0,0,0,0,0,0,0,0,0,0,0],"sum_hessian":[2.896075E4,2.0911344E4,8.049406E3,4.6670156E3,1.6244329E4,7.9544814E3,9.4924034E1,5.648953E2,4.10212E3,6.432617E3,9.811712E3,7.315477E3,6.3900446E2,5.047546E1,4.444857E1,1.7007366E1,5.4788794E2,4.0111702E3,9.094999E1,6.42934E3,3.2770476E0,8.542597E3,1.2691157E3,6.991793E3,3.236841E2,2.3244596E1,6.157599E2,2.2527668E0,4.2195805E1,5.3329974E2,1.4588174E1,3.1112769E3,8.998931E2,2.7343983E1,6.3606003E1,3.0312246E3,5.511372E3,8.611648E2,4.0795093E2,3.1438568E2,9.298433E0,1.9993553E1,3.2510445E0,1.0214175E0,6.1473846E2,1.1919197E0,1.0608472E0],"tree_param":{"num_deleted":"0","num_feature":"10","num_nodes":"47","size_leaf_vector":"1"}},{"base_weights":[1.0973063E-2,4.512544E-1,-1.1481646E0,-9.199714E-1,8.485494E-1,-1.1602776E0,-1.3057558E-1,-1.9708884E-1,-1.0261956E0,1.0093997E0,7.450952E-1,-1.1655897E0,-1.0977257E0,-1.15549676E-1,1.0376219E0,2.26844E-1,-2.6465735E-1,-1.0827013E0,-8.283765E-1,1.0105603E-1,-9.201335E-2,-2.4961184E-1,8.88365E-1,-1.1696951E0,-1.0737827E0,5.383581E-1,-1.1632413E0,3.0478147E-1,1.0763965E-1,-7.845082E-2,2.625362E-2,-2.354542E-2,-1.19025186E-1,-1.10451736E-1,-3.6211737E-2,5.3124886E-2,-1.0800059E-1,2.6441885E-3,-1.0340517E-1,5.845293E-2,1.0599637E-1,-1.085601E-1,-1.17214374E-1,-1.1278786E-1,1.5503879E-1,8.8191785E-2,-9.934109E-2,-2.0350743E-2,-1.1645931E-1,-1.4860894E-2,6.2257566E-2],"categories":[],"categories_nodes":[],"categories_segments":[],"categories_sizes":[],"default_left":[0,0,0,0,0,0,0,0,0,0,0,0,0,0,0,0,0,0,0,0,0,0,0,0,0,0,0,0,0,0,0,0,0,0,0,0,0,0,0,0,0,0,0,0,0,0,0,0,0,0,0],"id":14,"left_children":[1,3,5,7,9,11,13,15,17,19,21,23,25,-1,27,29,31,33,35,-1,-1,37,39,41,43,45,47,49,-1,-1,-1,-1,-1,-1,-1,-1,-1,-1,-1,-1,-1,-1,-1,-1,-1,-1,-1,-1,-1,-1,-1],"loss_changes":[1.3763471E4,1.0648512E4,9.135547E1,3.3698926E2,2.5143262E2,1.1582031E0,1.07110855E2,1.6210844E1,4.189673E1,1.4207031E1,1.3151299E3,1.2861328E0,6.402161E1,0E0,8.6159515E-1,3.0234013E0,1.2877682E1,4.6360596E1,2.930349E2,0E0,0E0,2.5174396E2,4.1988623E2,5.46875E-2,4.447052E1,1.3219534E1,5.0109863E-1,5.9664905E-1,0E0,0E0,0E0,0E0,0E0,0E0,0E0,0E0,0E0,0E0,0E0,0E0,0E0,0E0,0E0,0E0,0E0,0E0,0E0,0E0,0E0,0E0,0E0],"parents":[2147483647,0,0,1,1,2,2,3,3,4,4,5,5,6,6,7,7,8,8,9,9,10,10,11,11,12,12,14,14,15,15,16,16,17,17,18,18,21,21,22,22,23,23,24,24,25,25,26,26,27,27],"right_children":[2,4,6,8,10,12,14,16,18,20,22,24,26,-1,28,30,32,34,36,-1,-1,38,40,42,44,46,48,50,-1,-1,-1,-1,-1,-1,-1,-1,-1,-1,-1,-1,-1,-1,-1,-1,-1,-1,-1,-1,-1,-1,-1],"split_conditions":[1.5E1,1.2E1,2.3133333E8,2E0,2E0,6.48E2,1.7E1,1E0,3.305785E4,3E0,4E0,3.7E7,6.66E2,-1.15549676E-1,2E0,6E0,3E6,1.0546492E7,4.347826E4,1.0105603E-1,-9.201335E-2,3E0,2.255639E4,1.6190508E1,8.08E2,6.743333E2,1.401706E-1,3.76E2,1.0763965E-1,-7.845082E-2,2.625362E-2,-2.354542E-2,-1.19025186E-1,-1.10451736E-1,-3.6211737E-2,5.3124886E-2,-1.0800059E-1,2.6441885E-3,-1.0340517E-1,5.845293E-2,1.0599637E-1,-1.085601E-1,-1.17214374E-1,-1.1278786E-1,1.5503879E-1,8.8191785E-2,-9.934109E-2,-2.0350743E-2,-1.1645931E-1,-1.4860894E-2,6.2257566E-2],"split_indices":[4,3,5,0,0,4,9,0,6,1,0,5,4,0,0,9,6,7,6,0,0,0,6,5,3,8,6,4,0,0,0,0,0,0,0,0,0,0,0,0,0,0,0,0,0,0,0,0,0,0,0],"split_type":[0,0,0,0,0,0,0,0,0,0,0,0,0,0,0,0,0,0,0,0,0,0,0,0,0,0,0,0,0,0,0,0,0,0,0,0,0,0,0,0,0,0,0,0,0,0,0,0,0,0,0],"sum_hessian":[2.6966848E4,1.9543969E4,7.4228774E3,4.390222E3,1.5153747E4,7.3354194E3,8.745818E1,5.6283606E2,3.827386E3,5.9280615E3,9.225686E3,6.7449834E3,5.9043604E2,4.65917E1,4.086648E1,7.7051094E1,4.8578497E2,2.9735405E3,8.538452E2,5.924974E3,3.087383E0,1.1614082E3,8.064278E3,6.445034E3,2.9994916E2,2.2455261E1,5.679808E2,2.4988327E0,3.836765E1,1.911386E0,7.513971E1,4.721429E2,1.3642059E1,2.885644E3,8.789656E1,1.3317137E2,7.206739E2,8.598004E2,3.0160773E2,2.912233E3,5.152045E3,1.9492099E2,6.2501133E3,2.944494E2,5.49973E0,1.868799E1,3.7672715E0,1.0120534E0,5.6696875E2,1.2491169E0,1.2497158E0],"tree_param":{"num_deleted":"0","num_feature":"10","num_nodes":"51","size_leaf_vector":"1"}},{"base_weights":[1.0613774E-2,4.3612403E-1,-1.1277639E0,-8.834328E-1,8.214992E-1,-1.1396694E0,-1.2749515E-1,-1.7841162E-1,-9.941248E-1,8.88621E-1,5.506574E-1,-1.1515535E0,-1.1091307E0,-1.1342006E-1,1.0222732E0,-1.1404907E-1,-1.4903858E-1,-1.0541568E0,-7.886743E-1,9.1078174E-1,-1.6354295E0,-1.9819121E0,9.8918515E-1,-1.0516778E0,-1.15696244E-1,-7.0677316E-1,-1.1261754E0,2.2549575E-2,1.0618792E-1,-1.3533142E-1,-1.2518085E-2,-1.0777046E-1,-3.288213E-2,3.9375335E-2,-1.06082454E-1,1.065573E-1,7.599471E-2,-2.715794E-1,-1.3405527E-1,-2.200315E-1,4.876913E-2,1.0586422E-1,-7.3093876E-2,-1.0930606E-1,2.891921E-1,2.1444502E-1,-8.059587E-2,1.24909244E-1,-1.1283042E-1],"categories":[],"categories_nodes":[],"categories_segments":[],"categories_sizes":[],"default_left":[0,0,0,0,0,0,0,0,0,0,0,0,0,0,0,0,0,0,0,0,0,0,0,0,0,0,0,0,0,0,0,0,0,0,0,0,0,0,0,0,0,0,0,0,0,0,0,0,0],"id":15,"left_children":[1,3,5,7,9,11,13,15,17,19,21,23,25,-1,27,-1,29,31,33,35,37,39,41,43,-1,45,47,-1,-1,-1,-1,-1,-1,-1,-1,-1,-1,-1,-1,-1,-1,-1,-1,-1,-1,-1,-1,-1,-1],"loss_changes":[1.2164795E4,9.296823E3,8.122754E1,3.2232617E2,2.567295E2,1.1738281E0,9.5492134E1,1.5711739E1,4.3218506E1,6.3563965E2,3.1257622E3,1.3950195E0,1.2363037E1,0E0,9.7776794E-1,0E0,1.5532304E1,4.680249E1,2.6158203E2,2.6160254E2,2.7908081E1,2.2517151E2,2.8730127E2,4.5490204E1,0E0,2.4540268E1,1.0708252E1,0E0,0E0,0E0,0E0,0E0,0E0,0E0,0E0,0E0,0E0,0E0,0E0,0E0,0E0,0E0,0E0,0E0,0E0,0E0,0E0,0E0,0E0],"parents":[2147483647,0,0,1,1,2,2,3,3,4,4,5,5,6,6,7,7,8,8,9,9,10,10,11,11,12,12,14,14,16,16,17,17,18,18,19,19,20,20,21,21,22,22,23,23,25,25,26,26],"right_children":[2,4,6,8,10,12,14,16,18,20,22,24,26,-1,28,-1,30,32,34,36,38,40,42,44,-1,46,48,-1,-1,-1,-1,-1,-1,-1,-1,-1,-1,-1,-1,-1,-1,-1,-1,-1,-1,-1,-1,-1,-1],"split_conditions":[1.5E1,1.2E1,2.3133333E8,2E0,1.61E2,5.2E1,1.7E1,6E0,3.305785E4,3E0,2.4E1,2.9E1,2.0536E4,-1.1342006E-1,7.02E2,-1.1404907E-1,2E0,1.0546492E7,4.4444445E4,5.657895E5,4.528302E5,1.8633541E4,4.469133E0,4.99725E5,-1.15696244E-1,5.3E1,6.7288184E0,2.2549575E-2,1.0618792E-1,-1.3533142E-1,-1.2518085E-2,-1.0777046E-1,-3.288213E-2,3.9375335E-2,-1.06082454E-1,1.065573E-1,7.599471E-2,-2.715794E-1,-1.3405527E-1,-2.200315E-1,4.876913E-2,1.0586422E-1,-7.3093876E-2,-1.0930606E-1,2.891921E-1,2.1444502E-1,-8.059587E-2,1.24909244E-1,-1.1283042E-1],"split_indices":[4,3,5,0,0,4,9,9,6,1,3,4,0,0,3,0,1,7,6,5,5,6,6,0,0,4,5,0,0,0,0,0,0,0,0,0,0,0,0,0,0,0,0,0,0,0,0,0,0],"split_type":[0,0,0,0,0,0,0,0,0,0,0,0,0,0,0,0,0,0,0,0,0,0,0,0,0,0,0,0,0,0,0,0,0,0,0,0,0,0,0,0,0,0,0,0,0,0,0,0,0],"sum_hessian":[2.5111553E4,1.8279527E4,6.832025E3,4.131531E3,1.4147997E4,6.7515264E3,8.049846E1,5.6100195E2,3.5705288E3,1.1336287E4,2.8117102E3,4.8337646E3,1.9177618E3,4.2926632E1,3.757183E1,1.5499703E1,5.4550226E2,2.75995E3,8.105789E2,1.1238256E4,9.8031075E1,4.1448312E2,2.3972273E3,2.5837457E2,4.57539E3,7.966446E1,1.8380974E3,2.0961332E0,3.5475697E1,9.514433E0,5.359878E2,2.672696E3,8.725385E1,1.5157498E2,6.5900397E2,5.543392E3,5.694864E3,1.9259289E1,7.877179E1,3.809062E2,3.357692E1,2.304556E3,9.267118E1,2.5640677E2,1.9678156E0,1.9849114E0,7.767954E1,1.1214005E0,1.8369761E3],"tree_param":{"num_deleted":"0","num_feature":"10","num_nodes":"49","size_leaf_vector":"1"}},{"base_weights":[1.0385766E-2,4.2226702E-1,-1.1087989E0,-8.484129E-1,7.970562E-1,-1.1205052E0,-1.2492569E-1,-1.6170833E-1,-9.637022E-1,9.753181E-1,6.8424606E-1,-1.1268371E0,-1.0467068E0,-1.1151587E-1,1.0073917E0,-1.1135282E-1,-1.3461414E-1,-1.0278996E0,-7.5301355E-1,9.764344E-2,-8.5249186E-2,-3.015573E-1,8.4291816E-1,-1.1316421E0,-1.0207412E0,5.937817E-1,-1.1239094E0,2.122092E-2,1.0502275E-1,-1.0925241E-2,-1.1437493E-1,-1.0534521E-1,-2.9838512E-2,2.6440307E-2,-1.0283878E-1,-4.7401595E-3,-1.00211166E-1,5.2956242E-2,1.0329926E-1,-9.2630915E-2,-1.1328548E-1,-1.1007606E-1,1.0297688E-1,8.933925E-2,-1.0707215E-1,-2.0641465E-2,-1.1255246E-1],"categories":[],"categories_nodes":[],"categories_segments":[],"categories_sizes":[],"default_left":[0,0,0,0,0,0,0,0,0,0,0,0,0,0,0,0,0,0,0,0,0,0,0,0,0,0,0,0,0,0,0,0,0,0,0,0,0,0,0,0,0,0,0,0,0,0,0],"id":16,"left_children":[1,3,5,7,9,11,13,15,17,19,21,23,25,-1,27,-1,29,31,33,-1,-1,35,37,39,41,43,45,-1,-1,-1,-1,-1,-1,-1,-1,-1,-1,-1,-1,-1,-1,-1,-1,-1,-1,-1,-1],"loss_changes":[1.0766407E4,8.13137E3,7.2225586E1,3.0774756E2,2.6447266E2,1.722168E0,8.5222336E1,1.4299087E1,4.4264893E1,1.1253906E1,1.2638171E3,1.753418E0,6.458856E1,0E0,9.869194E-1,0E0,1.3846785E1,4.7210205E1,2.1919864E2,0E0,0E0,1.994913E2,4.1389893E2,3.0664062E-1,4.3368683E1,1.2595653E1,4.8260498E-1,0E0,0E0,0E0,0E0,0E0,0E0,0E0,0E0,0E0,0E0,0E0,0E0,0E0,0E0,0E0,0E0,0E0,0E0,0E0,0E0],"parents":[2147483647,0,0,1,1,2,2,3,3,4,4,5,5,6,6,7,7,8,8,9,9,10,10,11,11,12,12,14,14,16,16,17,17,18,18,21,21,22,22,23,23,24,24,25,25,26,26],"right_children":[2,4,6,8,10,12,14,16,18,20,22,24,26,-1,28,-1,30,32,34,-1,-1,36,38,40,42,44,46,-1,-1,-1,-1,-1,-1,-1,-1,-1,-1,-1,-1,-1,-1,-1,-1,-1,-1,-1,-1],"split_conditions":[1.5E1,1.2E1,2.3133333E8,2E0,2E0,6.48E2,1.7E1,6E0,3.2258064E4,3E0,4E0,3.7E7,6.66E2,-1.1151587E-1,7.02E2,-1.1135282E-1,3E6,1.0546492E7,4.4444445E4,9.764344E-2,-8.5249186E-2,3E0,2.255639E4,2E0,2.97E2,1.096434E3,1.9629297E-1,2.122092E-2,1.0502275E-1,-1.0925241E-2,-1.1437493E-1,-1.0534521E-1,-2.9838512E-2,2.6440307E-2,-1.0283878E-1,-4.7401595E-3,-1.00211166E-1,5.2956242E-2,1.0329926E-1,-9.2630915E-2,-1.1328548E-1,-1.1007606E-1,1.0297688E-1,8.933925E-2,-1.0707215E-1,-2.0641465E-2,-1.1255246E-1],"split_indices":[4,3,5,0,0,4,9,9,6,1,0,5,4,0,3,0,6,7,6,0,0,0,6,1,4,5,6,0,0,0,0,0,0,0,0,0,0,0,0,0,0,0,0,0,0,0,0],"split_type":[0,0,0,0,0,0,0,0,0,0,0,0,0,0,0,0,0,0,0,0,0,0,0,0,0,0,0,0,0,0,0,0,0,0,0,0,0,0,0,0,0,0,0,0,0,0,0],"sum_hessian":[2.3353908E4,1.707179E4,6.28212E3,3.8881602E3,1.3183628E4,6.208116E3,7.400409E1,5.592815E2,3.328879E3,5.1065845E3,8.0770435E3,5.7044077E3,5.0370847E2,3.948706E1,3.451703E1,1.4369847E1,5.449116E2,2.548473E3,7.804058E2,5.103933E3,2.6513655E0,1.1196903E3,6.957353E3,5.448003E3,2.564048E2,2.2338694E1,4.8136978E2,2.0687046E0,3.2448326E1,5.3263367E2,1.2277965E1,2.4618003E3,8.6672646E1,1.6624084E2,6.14165E2,8.223983E2,2.9729205E2,2.6282383E3,4.3291147E3,3.6477757E1,5.4115254E3,2.472204E2,9.184383E0,1.9323694E1,3.0149994E0,1.0722604E0,4.8029752E2],"tree_param":{"num_deleted":"0","num_feature":"10","num_nodes":"47","size_leaf_vector":"1"}},{"base_weights":[9.981538E-3,4.075027E-1,-1.0926222E0,-8.1459224E-1,7.702919E-1,-1.1041753E0,-1.22509636E-1,-1.4667727E-1,-9.344686E-1,1.0652367E0,6.961131E-1,-1.1181625E0,-1.0684787E0,-1.09799825E-1,9.929997E-1,-1.08903185E-1,-1.2167942E-1,-1.001864E0,-7.1416503E-1,9.6669453E-1,1.11195125E-1,-7.044434E-1,8.2738066E-1,-1.0016066E0,-1.1245346E-1,-6.29691E-1,-1.0880803E0,1.916034E-1,1.042967E-1,-1.2891553E-1,-1.0037701E-2,-1.0292782E-1,-2.7059663E-2,3.8097095E-2,-9.813171E-2,9.861817E-2,-1.8120861E-1,-1.9715086E-1,3.7493058E-2,8.543412E-2,-1.629825E-1,-1.0458865E-1,2.8990728E-1,2.0016678E-1,-7.371929E-2,1.288539E-1,-1.0905945E-1,-2.2921931E-2,5.4638762E-2],"categories":[],"categories_nodes":[],"categories_segments":[],"categories_sizes":[],"default_left":[0,0,0,0,0,0,0,0,0,0,0,0,0,0,0,0,0,0,0,0,0,0,0,0,0,0,0,0,0,0,0,0,0,0,0,0,0,0,0,0,0,0,0,0,0,0,0,0,0],"id":17,"left_children":[1,3,5,7,9,11,13,15,17,19,21,23,25,-1,27,-1,29,31,33,35,-1,37,39,41,-1,43,45,47,-1,-1,-1,-1,-1,-1,-1,-1,-1,-1,-1,-1,-1,-1,-1,-1,-1,-1,-1,-1,-1],"loss_changes":[9.536432E3,7.0908047E3,6.448486E1,2.9299756E2,2.6905908E2,1.6499023E0,7.615117E1,1.3018989E1,4.5368164E1,1.0324463E1,1.8126636E3,1.8979492E0,1.3304199E1,0E0,1.1098022E0,0E0,1.3424445E1,4.7318115E1,2.1411551E2,4.532556E1,0E0,1.1566289E3,5.9843066E2,4.107019E1,0E0,2.1821611E1,1.0700684E1,5.9472793E-1,0E0,0E0,0E0,0E0,0E0,0E0,0E0,0E0,0E0,0E0,0E0,0E0,0E0,0E0,0E0,0E0,0E0,0E0,0E0,0E0,0E0],"parents":[2147483647,0,0,1,1,2,2,3,3,4,4,5,5,6,6,7,7,8,8,9,9,10,10,11,11,12,12,14,14,16,16,17,17,18,18,19,19,21,21,22,22,23,23,25,25,26,26,27,27],"right_children":[2,4,6,8,10,12,14,16,18,20,22,24,26,-1,28,-1,30,32,34,36,-1,38,40,42,-1,44,46,48,-1,-1,-1,-1,-1,-1,-1,-1,-1,-1,-1,-1,-1,-1,-1,-1,-1,-1,-1,-1,-1],"split_conditions":[1.5E1,1.2E1,2.3133333E8,2E0,4.209464E-1,5.2E1,1.7E1,6E0,3.305785E4,3E0,2.0134229E4,2.9E1,2.0536E4,-1.09799825E-1,2E0,-1.08903185E-1,2E0,1.0546492E7,4.347826E4,1E0,1.11195125E-1,2.4E1,3E0,3.1E7,-1.1245346E-1,5.3E1,7.2E1,3.76E2,1.042967E-1,-1.2891553E-1,-1.0037701E-2,-1.0292782E-1,-2.7059663E-2,3.8097095E-2,-9.813171E-2,9.861817E-2,-1.8120861E-1,-1.9715086E-1,3.7493058E-2,8.543412E-2,-1.629825E-1,-1.0458865E-1,2.8990728E-1,2.0016678E-1,-7.371929E-2,1.288539E-1,-1.0905945E-1,-2.2921931E-2,5.4638762E-2],"split_indices":[4,3,5,0,6,4,9,9,6,1,6,4,0,0,0,0,1,7,6,0,0,3,1,5,0,4,3,4,0,0,0,0,0,0,0,0,0,0,0,0,0,0,0,0,0,0,0,0,0],"split_type":[0,0,0,0,0,0,0,0,0,0,0,0,0,0,0,0,0,0,0,0,0,0,0,0,0,0,0,0,0,0,0,0,0,0,0,0,0,0,0,0,0,0,0,0,0,0,0,0,0],"sum_hessian":[2.1755346E4,1.5990815E4,5.764531E3,3.6601055E3,1.233071E4,5.6965513E3,6.7979195E1,5.572881E2,3.1028174E3,2.4752852E3,9.855425E3,4.0710522E3,1.6254993E3,3.6274036E1,3.1705158E1,1.3301223E1,5.439868E2,2.373246E3,7.2957135E2,8.03029E2,1.6722561E3,8.4417285E2,9.011252E3,2.1922765E2,3.8518247E3,7.092545E1,1.5545737E3,2.1445506E0,2.9560608E1,8.681497E0,5.3530536E2,2.2870984E3,8.614767E1,1.4298932E2,5.8658203E2,7.9807733E2,4.95168E0,3.879436E2,4.5622922E2,8.914099E3,9.7153206E1,2.174906E2,1.7370489E0,2.092277E0,6.8833176E1,1.1023729E0,1.5534714E3,1.1428697E0,1.001681E0],"tree_param":{"num_deleted":"0","num_feature":"10","num_nodes":"49","size_leaf_vector":"1"}},{"base_weights":[9.591239E-3,3.937217E-1,-1.0770348E0,-7.8165483E-1,7.457805E-1,-1.0884418E0,-1.1999237E-1,-1.3299619E-1,-9.061995E-1,9.404373E-1,6.2674975E-1,-1.0960207E0,-1.0011517E0,-1.0824096E-1,9.7907066E-1,2.4462013E-1,-1.9379866E-1,-9.772323E-1,-6.796903E-1,9.414888E-2,-7.81971E-2,8.112182E-1,-3.1440538E-1,-1.1016132E0,-9.7456056E-1,6.406582E-1,-1.092305E0,1.564818E-2,1.0299627E-1,-6.619137E-2,2.7015597E-2,-1.6999928E-2,-1.1052301E-1,-9.852165E-2,1.636837E-1,4.4813226E-3,-1.0758489E-1,4.8030663E-2,1.0297296E-1,-3.8233E-2,1.18411265E-1,-9.869212E-2,-1.1050053E-1,-1.0657447E-1,9.994588E-2,-7.390207E-2,9.745753E-2,-1.5847912E-2,-1.0942488E-1],"categories":[],"categories_nodes":[],"categories_segments":[],"categories_sizes":[],"default_left":[0,0,0,0,0,0,0,0,0,0,0,0,0,0,0,0,0,0,0,0,0,0,0,0,0,0,0,0,0,0,0,0,0,0,0,0,0,0,0,0,0,0,0,0,0,0,0,0,0],"id":18,"left_children":[1,3,5,7,9,11,13,15,17,19,21,23,25,-1,27,29,31,33,35,-1,-1,37,39,41,43,45,47,-1,-1,-1,-1,-1,-1,-1,-1,-1,-1,-1,-1,-1,-1,-1,-1,-1,-1,-1,-1,-1,-1],"loss_changes":[8.451908E3,6.1911016E3,5.7604492E1,2.784851E2,2.6615576E2,2.3603516E0,6.813774E1,1.2828481E1,4.588257E1,8.643555E0,1.2410669E3,2.1850586E0,6.491E1,0E0,1.1002083E0,1.9762053E0,1.0224535E1,4.7530273E1,1.9921912E2,0E0,0E0,4.3161792E2,1.1974383E2,6.9091797E-1,4.0641235E1,1.1407623E1,5.65094E-1,0E0,0E0,0E0,0E0,0E0,0E0,0E0,0E0,0E0,0E0,0E0,0E0,0E0,0E0,0E0,0E0,0E0,0E0,0E0,0E0,0E0,0E0],"parents":[2147483647,0,0,1,1,2,2,3,3,4,4,5,5,6,6,7,7,8,8,9,9,10,10,11,11,12,12,14,14,15,15,16,16,17,17,18,18,21,21,22,22,23,23,24,24,25,25,26,26],"right_children":[2,4,6,8,10,12,14,16,18,20,22,24,26,-1,28,30,32,34,36,-1,-1,38,40,42,44,46,48,-1,-1,-1,-1,-1,-1,-1,-1,-1,-1,-1,-1,-1,-1,-1,-1,-1,-1,-1,-1,-1,-1],"split_conditions":[1.5E1,1.2E1,2.3133333E8,2E0,2E0,6.48E2,1.7E1,1E0,3.305785E4,3E0,5.657895E5,3.7E7,6.66E2,-1.0824096E-1,7.02E2,6E0,3E6,3.8E1,8E4,9.414888E-2,-7.81971E-2,2.255639E4,1E0,1.6190508E1,2.97E2,3.2E1,1.9629297E-1,1.564818E-2,1.0299627E-1,-6.619137E-2,2.7015597E-2,-1.6999928E-2,-1.1052301E-1,-9.852165E-2,1.636837E-1,4.4813226E-3,-1.0758489E-1,4.8030663E-2,1.0297296E-1,-3.8233E-2,1.18411265E-1,-9.869212E-2,-1.1050053E-1,-1.0657447E-1,9.994588E-2,-7.390207E-2,9.745753E-2,-1.5847912E-2,-1.0942488E-1],"split_indices":[4,3,5,0,0,4,9,0,6,1,5,5,4,0,3,9,6,2,6,0,0,6,2,5,4,2,6,0,0,0,0,0,0,0,0,0,0,0,0,0,0,0,0,0,0,0,0,0,0],"split_type":[0,0,0,0,0,0,0,0,0,0,0,0,0,0,0,0,0,0,0,0,0,0,0,0,0,0,0,0,0,0,0,0,0,0,0,0,0,0,0,0,0,0,0,0,0,0,0,0,0],"sum_hessian":[2.0246625E4,1.4959107E4,5.2875186E3,3.4476458E3,1.1511461E4,5.225103E3,6.2415295E1,5.556668E2,2.891979E3,4.3654795E3,7.145982E3,4.7970522E3,4.2805103E2,3.3284332E1,2.9130962E1,7.664384E1,4.7902295E2,2.199048E3,6.9293097E2,4.3632695E3,2.2102265E0,5.975006E3,1.1709761E3,4.578184E3,2.188682E2,2.2198246E1,4.0585278E2,1.9346826E0,2.719628E1,1.4170479E0,7.522679E1,4.679893E2,1.1033665E1,2.1929731E3,6.0749345E0,2.4526743E2,4.4766354E2,2.3775955E3,3.5974104E3,1.1209124E3,5.0063713E1,1.3989781E2,4.438286E3,2.096444E2,9.223797E0,4.089219E0,1.8109026E1,1.0145187E0,4.048383E2],"tree_param":{"num_deleted":"0","num_feature":"10","num_nodes":"49","size_leaf_vector":"1"}},{"base_weights":[9.256747E-3,3.790012E-1,-1.0638531E0,-7.4866796E-1,7.187281E-1,-1.0751517E0,-1.17843434E-1,-1.2045842E-1,-8.775014E-1,1.045033E0,6.37542E-1,-1.082899E0,-9.860767E-1,-1.06813185E-1,9.6518564E-1,-1.06227055E-1,-9.752395E-2,-1.006268E0,-7.33383E-1,9.348923E-1,1.0952941E-1,-6.9192994E-1,7.7881026E-1,-1.0888268E0,-9.551441E-1,6.018135E-1,-1.0785096E0,1.3588408E-2,1.023654E-1,-1.23301744E-1,-7.846268E-3,-1.0581789E-1,2.3036551E-1,-9.428116E-2,-3.8487133E-2,9.567698E-2,-1.6924337E-1,-1.7540799E-1,3.1199887E-2,8.053176E-2,-1.5740545E-1,-9.656725E-2,-1.092509E-1,-1.04921214E-1,8.989678E-2,9.0774946E-2,-8.724986E-2,-1.5118636E-2,-1.0806121E-1],"categories":[],"categories_nodes":[],"categories_segments":[],"categories_sizes":[],"default_left":[0,0,0,0,0,0,0,0,0,0,0,0,0,0,0,0,0,0,0,0,0,0,0,0,0,0,0,0,0,0,0,0,0,0,0,0,0,0,0,0,0,0,0,0,0,0,0,0,0],"id":19,"left_children":[1,3,5,7,9,11,13,15,17,19,21,23,25,-1,27,-1,29,31,33,35,-1,37,39,41,43,45,47,-1,-1,-1,-1,-1,-1,-1,-1,-1,-1,-1,-1,-1,-1,-1,-1,-1,-1,-1,-1,-1,-1],"loss_changes":[7.4969966E3,5.384156E3,5.1626953E1,2.6325073E2,2.8543652E2,2.2333984E0,6.1001755E1,1.1882557E1,4.9368164E1,1.0878906E1,1.625248E3,2.2856445E0,5.8482788E1,0E0,1.2068386E0,0E0,1.1652124E1,2.4698657E2,9.2898254E1,4.073767E1,0E0,8.8714343E2,4.8900244E2,8.4521484E-1,3.632814E1,1.0858109E1,5.63324E-1,0E0,0E0,0E0,0E0,0E0,0E0,0E0,0E0,0E0,0E0,0E0,0E0,0E0,0E0,0E0,0E0,0E0,0E0,0E0,0E0,0E0,0E0],"parents":[2147483647,0,0,1,1,2,2,3,3,4,4,5,5,6,6,7,7,8,8,9,9,10,10,11,11,12,12,14,14,16,16,17,17,18,18,19,19,21,21,22,22,23,23,24,24,25,25,26,26],"right_children":[2,4,6,8,10,12,14,16,18,20,22,24,26,-1,28,-1,30,32,34,36,-1,38,40,42,44,46,48,-1,-1,-1,-1,-1,-1,-1,-1,-1,-1,-1,-1,-1,-1,-1,-1,-1,-1,-1,-1,-1,-1],"split_conditions":[1.5E1,1.2E1,2.3133333E8,2E0,4.209464E-1,6.48E2,1.7E1,6E0,2E0,3E0,2.255639E4,3.7E7,6.66E2,-1.06813185E-1,2E0,-1.06227055E-1,2E0,2.49351E5,1.8633541E4,1E0,1.0952941E-1,2.4E1,3E0,1.6190508E1,2.97E2,6.743333E2,1.9629297E-1,1.3588408E-2,1.023654E-1,-1.23301744E-1,-7.846268E-3,-1.0581789E-1,2.3036551E-1,-9.428116E-2,-3.8487133E-2,9.567698E-2,-1.6924337E-1,-1.7540799E-1,3.1199887E-2,8.053176E-2,-1.5740545E-1,-9.656725E-2,-1.092509E-1,-1.04921214E-1,8.989678E-2,9.0774946E-2,-8.724986E-2,-1.5118636E-2,-1.0806121E-1],"split_indices":[4,3,5,0,6,4,9,9,1,1,6,5,4,0,0,0,1,0,6,0,0,3,1,5,4,8,6,0,0,0,0,0,0,0,0,0,0,0,0,0,0,0,0,0,0,0,0,0,0],"split_type":[0,0,0,0,0,0,0,0,0,0,0,0,0,0,0,0,0,0,0,0,0,0,0,0,0,0,0,0,0,0,0,0,0,0,0,0,0,0,0,0,0,0,0,0,0,0,0,0,0],"sum_hessian":[1.8892746E4,1.4051791E4,4.840956E3,3.2529475E3,1.0798844E4,4.783686E3,5.726991E1,5.539154E2,2.699032E3,2.149133E3,8.649711E3,4.390652E3,3.930345E2,3.051165E1,2.6758259E1,1.2090658E1,5.4182477E2,1.4222771E3,1.2767549E3,6.795629E2,1.4695701E3,8.304518E2,7.819259E3,4.188771E3,2.0188065E2,2.1317286E1,3.717172E2,1.9812145E0,2.4777044E1,7.893876E0,5.3393085E2,1.4009851E3,2.1291916E1,7.964468E2,4.8030814E2,6.7458154E2,4.9813547E0,4.0316193E2,4.2728986E2,7.732799E3,8.645981E1,1.2924983E2,4.0595212E3,1.9254597E2,9.334665E0,1.7972157E1,3.3451295E0,1.0058043E0,3.707114E2],"tree_param":{"num_deleted":"0","num_feature":"10","num_nodes":"49","size_leaf_vector":"1"}},{"base_weights":[8.767552E-3,3.6514103E-1,-1.0518284E0,-7.155765E-1,6.942154E-1,-1.0630394E0,-1.15759775E-1,-1.0928429E-1,-8.481716E-1,1.0331019E0,6.122342E-1,-1.0804933E0,-1.0189087E0,-1.0549432E-1,9.509918E-1,-1.041704E-1,-8.8165455E-2,4.0553268E-2,-8.713735E-1,9.1951066E-1,1.085267E-1,-6.478919E-1,7.5013226E-1,-9.2980313E-1,-1.0888397E-1,-5.1727515E-1,-1.0431988E0,9.94287E-3,1.0116366E-1,-6.781716E-3,-1.07228175E-1,-1.1267545E-1,1.18020214E-1,-9.6041165E-2,-6.1325174E-2,9.418088E-2,-1.5582168E-1,-1.6591096E-1,2.8813368E-2,7.768899E-2,-1.53041E-1,-9.92079E-2,3.1419104E-1,2.0259984E-1,-6.431191E-2,1.377127E-1,-1.0464396E-1],"categories":[],"categories_nodes":[],"categories_segments":[],"categories_sizes":[],"default_left":[0,0,0,0,0,0,0,0,0,0,0,0,0,0,0,0,0,0,0,0,0,0,0,0,0,0,0,0,0,0,0,0,0,0,0,0,0,0,0,0,0,0,0,0,0,0,0],"id":20,"left_children":[1,3,5,7,9,11,13,15,17,19,21,23,25,-1,27,-1,29,31,33,35,-1,37,39,41,-1,43,45,-1,-1,-1,-1,-1,-1,-1,-1,-1,-1,-1,-1,-1,-1,-1,-1,-1,-1,-1,-1],"loss_changes":[6.6563154E3,4.6883477E3,4.6358887E1,2.4729907E2,2.8011523E2,2.2695312E0,5.4645546E1,1.0805191E1,5.210022E1,1.0657227E1,1.4148403E3,2.911377E0,1.4788086E1,0E0,1.2211761E0,0E0,1.0785294E1,8.806329E1,5.5965942E1,3.6029236E1,0E0,7.6089575E2,4.4890186E2,4.636876E1,0E0,2.0532642E1,1.0844482E1,0E0,0E0,0E0,0E0,0E0,0E0,0E0,0E0,0E0,0E0,0E0,0E0,0E0,0E0,0E0,0E0,0E0,0E0,0E0,0E0],"parents":[2147483647,0,0,1,1,2,2,3,3,4,4,5,5,6,6,7,7,8,8,9,9,10,10,11,11,12,12,14,14,16,16,17,17,18,18,19,19,21,21,22,22,23,23,25,25,26,26],"right_children":[2,4,6,8,10,12,14,16,18,20,22,24,26,-1,28,-1,30,32,34,36,-1,38,40,42,-1,44,46,-1,-1,-1,-1,-1,-1,-1,-1,-1,-1,-1,-1,-1,-1,-1,-1,-1,-1,-1,-1],"split_conditions":[1.5E1,1.2E1,2.3133333E8,2E0,4.209464E-1,5.2E1,1.7E1,6E0,2.068795E-1,3E0,2.0134229E4,2.9E1,2.0536E4,-1.0549432E-1,7.02E2,-1.041704E-1,3E6,6E0,3.305785E4,1E0,1.085267E-1,2.4E1,3E0,4.99725E5,-1.0888397E-1,5.3E1,7.2E1,9.94287E-3,1.0116366E-1,-6.781716E-3,-1.07228175E-1,-1.1267545E-1,1.18020214E-1,-9.6041165E-2,-6.1325174E-2,9.418088E-2,-1.5582168E-1,-1.6591096E-1,2.8813368E-2,7.768899E-2,-1.53041E-1,-9.92079E-2,3.1419104E-1,2.0259984E-1,-6.431191E-2,1.377127E-1,-1.0464396E-1],"split_indices":[4,3,5,0,6,4,9,9,6,1,6,4,0,0,3,0,6,9,6,0,0,3,1,0,0,4,3,0,0,0,0,0,0,0,0,0,0,0,0,0,0,0,0,0,0,0,0],"split_type":[0,0,0,0,0,0,0,0,0,0,0,0,0,0,0,0,0,0,0,0,0,0,0,0,0,0,0,0,0,0,0,0,0,0,0,0,0,0,0,0,0,0,0,0,0,0,0],"sum_hessian":[1.7608764E4,1.318058E4,4.428184E3,3.0763438E3,1.0104236E4,4.375642E3,5.254189E1,5.523843E2,2.5239595E3,1.9659546E3,8.1382817E3,3.1187021E3,1.2569402E3,2.794754E1,2.4594347E1,1.1163818E1,5.4122046E2,6.419742E1,2.459762E3,6.2456616E2,1.3413884E3,8.0237775E2,7.335904E3,1.6957155E2,2.9491306E3,5.908235E1,1.1978578E3,1.8105447E0,2.2783804E1,5.313038E2,9.916705E0,3.1719458E1,3.2477962E1,1.8268693E3,6.3289276E2,6.196099E2,4.9562435E0,3.8532574E2,4.17052E2,7.2514814E3,8.442261E1,1.6776201E2,1.8095309E0,2.073719E0,5.7008633E1,1.0348772E0,1.196823E3],"tree_param":{"num_deleted":"0","num_feature":"10","num_nodes":"47","size_leaf_vector":"1"}},{"base_weights":[8.307448E-3,3.5169435E-1,-1.0395191E0,-6.848102E-1,6.6996866E-1,-1.0506293E0,-1.1380072E-1,-9.920834E-2,-8.216982E-1,1.0218266E0,5.873144E-1,-1.0599589E0,-9.448999E-1,-1.04265325E-1,9.3713963E-1,2.3887536E-1,-1.5389726E-1,-9.660268E-1,-6.655517E-1,9.04019E-1,1.0763438E-1,7.208816E-1,-6.113455E-1,-1.0669754E0,-9.115247E-1,6.4599603E-1,-1.0544261E0,8.024133E-3,1.00596786E-1,-5.84003E-2,2.5884677E-2,-1.3402248E-2,-1.0482564E-1,1.8388326E-1,-1.02922015E-1,-8.951267E-2,-3.0995894E-2,9.2667E-2,-1.4499946E-1,7.4891135E-2,-1.5793136E-1,-1.6026478E-1,2.4355467E-2,-9.237694E-2,-1.0713311E-1,2.9385582E-1,-9.673067E-2,9.162541E-2,-9.737981E-2,-2.3216357E-2,-1.05694406E-1],"categories":[],"categories_nodes":[],"categories_segments":[],"categories_sizes":[],"default_left":[0,0,0,0,0,0,0,0,0,0,0,0,0,0,0,0,0,0,0,0,0,0,0,0,0,0,0,0,0,0,0,0,0,0,0,0,0,0,0,0,0,0,0,0,0,0,0,0,0,0,0],"id":21,"left_children":[1,3,5,7,9,11,13,15,17,19,21,23,25,-1,27,29,31,33,35,37,-1,39,41,43,45,47,49,-1,-1,-1,-1,-1,-1,-1,-1,-1,-1,-1,-1,-1,-1,-1,-1,-1,-1,-1,-1,-1,-1,-1,-1],"loss_changes":[5.907883E3,4.080144E3,4.1563477E1,2.3285034E2,2.7457715E2,2.9482422E0,4.8989445E1,1.0237093E1,5.2431885E1,1.0578003E1,1.2275247E3,2.8510742E0,5.8865845E1,0E0,1.3113155E0,1.4199939E0,8.311204E0,2.1842627E2,9.233313E1,3.201541E1,0E0,4.458225E2,6.5205945E2,1.1936035E0,3.990825E1,1.0579319E1,4.022522E-1,0E0,0E0,0E0,0E0,0E0,0E0,0E0,0E0,0E0,0E0,0E0,0E0,0E0,0E0,0E0,0E0,0E0,0E0,0E0,0E0,0E0,0E0,0E0,0E0],"parents":[2147483647,0,0,1,1,2,2,3,3,4,4,5,5,6,6,7,7,8,8,9,9,10,10,11,11,12,12,14,14,15,15,16,16,17,17,18,18,19,19,21,21,22,22,23,23,24,24,25,25,26,26],"right_children":[2,4,6,8,10,12,14,16,18,20,22,24,26,-1,28,30,32,34,36,38,-1,40,42,44,46,48,50,-1,-1,-1,-1,-1,-1,-1,-1,-1,-1,-1,-1,-1,-1,-1,-1,-1,-1,-1,-1,-1,-1,-1,-1],"split_conditions":[1.5E1,1.2E1,2.3133333E8,2E0,4.209464E-1,6.48E2,1.7E1,1E0,2E0,3E0,3E0,3.7E7,6.66E2,-1.04265325E-1,2E0,6E0,3E6,1.3128787E1,1.8633541E4,1E0,1.0763438E-1,2.94E2,2.4E1,1.6190508E1,2.9E1,1.096434E3,2.068795E-1,8.024133E-3,1.00596786E-1,-5.84003E-2,2.5884677E-2,-1.3402248E-2,-1.0482564E-1,1.8388326E-1,-1.02922015E-1,-8.951267E-2,-3.0995894E-2,9.2667E-2,-1.4499946E-1,7.4891135E-2,-1.5793136E-1,-1.6026478E-1,2.4355467E-2,-9.237694E-2,-1.0713311E-1,2.9385582E-1,-9.673067E-2,9.162541E-2,-9.737981E-2,-2.3216357E-2,-1.05694406E-1],"split_indices":[4,3,5,0,6,4,9,0,1,1,1,5,4,0,0,9,6,6,6,0,0,0,3,5,4,5,6,0,0,0,0,0,0,0,0,0,0,0,0,0,0,0,0,0,0,0,0,0,0,0,0],"split_type":[0,0,0,0,0,0,0,0,0,0,0,0,0,0,0,0,0,0,0,0,0,0,0,0,0,0,0,0,0,0,0,0,0,0,0,0,0,0,0,0,0,0,0,0,0,0,0,0,0,0,0],"sum_hessian":[1.6417441E4,1.2365699E4,4.0517424E3,2.904768E3,9.460932E3,4.0035579E3,4.8184464E1,5.506844E2,2.3540835E3,1.7975266E3,7.6634053E3,3.6706328E3,3.329251E2,2.5582113E1,2.260235E1,7.620731E1,4.7447708E2,1.22064E3,1.1334436E3,5.7423267E2,1.223294E3,6.895442E3,7.6796344E2,3.4990454E3,1.7158748E2,2.1128607E1,3.117965E2,1.8415245E0,2.0760826E1,1.1365416E0,7.507077E1,4.6528717E2,9.189926E0,2.6275883E1,1.1943641E3,6.878452E2,4.4559833E2,5.693605E2,4.8721876E0,6.8130933E3,8.23486E1,3.552072E2,4.1275623E2,1.0957469E2,3.3894707E3,1.7124771E0,1.69875E2,1.8479668E1,2.64894E0,1.2363881E0,3.1056012E2],"tree_param":{"num_deleted":"0","num_feature":"10","num_nodes":"51","size_leaf_vector":"1"}},{"base_weights":[7.722451E-3,3.3804503E-1,-1.0289297E0,-6.527298E-1,6.4591366E-1,-1.0399755E0,-1.1187485E-1,-8.9884974E-2,-7.9275197E-1,1.0110626E0,5.627313E-1,-1.0612351E0,-9.8676294E-1,-1.03109635E-1,9.2277807E-1,-7.6418385E-2,-1.435678E-1,-8.223234E-1,3.91055E-2,8.883048E-1,1.0683849E-1,6.928354E-1,-5.6960964E-1,-8.857028E-1,-1.0711247E-1,-4.156616E-1,-1.0164573E0,4.741538E-3,9.945349E-2,-1.01928644E-1,-5.6643076E-3,-9.262215E-2,-5.504135E-2,-8.5780494E-2,7.7333115E-2,9.112454E-2,-1.3606508E-1,7.200034E-2,-1.4771758E-1,-1.5151538E-1,2.2366699E-2,-9.5761836E-2,2.72977E-1,-8.081002E-2,4.4270024E-2,1.3439952E-1,-1.0202842E-1],"categories":[],"categories_nodes":[],"categories_segments":[],"categories_sizes":[],"default_left":[0,0,0,0,0,0,0,0,0,0,0,0,0,0,0,0,0,0,0,0,0,0,0,0,0,0,0,0,0,0,0,0,0,0,0,0,0,0,0,0,0,0,0,0,0,0,0],"id":22,"left_children":[1,3,5,7,9,11,13,15,17,19,21,23,25,-1,27,29,-1,31,33,35,-1,37,39,41,-1,43,45,-1,-1,-1,-1,-1,-1,-1,-1,-1,-1,-1,-1,-1,-1,-1,-1,-1,-1,-1,-1],"loss_changes":[5.247759E3,3.5454102E3,3.7395752E1,2.1710559E2,2.6876147E2,3.0922852E0,4.3934948E1,9.8599205E0,5.4312378E1,1.0619019E1,1.0646816E3,3.5668945E0,1.7533081E1,0E0,1.3215427E0,1.01172695E1,0E0,5.968933E1,5.1174755E1,2.8543732E1,0E0,3.8310083E2,5.5918945E2,4.018933E1,0E0,1.8555565E1,1.0456421E1,0E0,0E0,0E0,0E0,0E0,0E0,0E0,0E0,0E0,0E0,0E0,0E0,0E0,0E0,0E0,0E0,0E0,0E0,0E0,0E0],"parents":[2147483647,0,0,1,1,2,2,3,3,4,4,5,5,6,6,7,7,8,8,9,9,10,10,11,11,12,12,14,14,15,15,17,17,18,18,19,19,21,21,22,22,23,23,25,25,26,26],"right_children":[2,4,6,8,10,12,14,16,18,20,22,24,26,-1,28,30,-1,32,34,36,-1,38,40,42,-1,44,46,-1,-1,-1,-1,-1,-1,-1,-1,-1,-1,-1,-1,-1,-1,-1,-1,-1,-1,-1,-1],"split_conditions":[1.5E1,1.2E1,2.3133333E8,2E0,4.209464E-1,5.2E1,1.7E1,2E0,1.0546492E7,3E0,3E0,2.9E1,2.0536E4,-1.03109635E-1,7.02E2,6E0,-1.435678E-1,3.2258064E4,6E0,1E0,1.0683849E-1,2.94E2,2.4E1,4.99725E5,-1.0711247E-1,1.7E1,7.2E1,4.741538E-3,9.945349E-2,-1.01928644E-1,-5.6643076E-3,-9.262215E-2,-5.504135E-2,-8.5780494E-2,7.7333115E-2,9.112454E-2,-1.3606508E-1,7.200034E-2,-1.4771758E-1,-1.5151538E-1,2.2366699E-2,-9.5761836E-2,2.72977E-1,-8.081002E-2,4.4270024E-2,1.3439952E-1,-1.0202842E-1],"split_indices":[4,3,5,0,6,4,9,3,7,1,1,4,0,0,3,9,0,6,9,0,0,0,3,0,0,9,3,0,0,0,0,0,0,0,0,0,0,0,0,0,0,0,0,0,0,0,0],"split_type":[0,0,0,0,0,0,0,0,0,0,0,0,0,0,0,0,0,0,0,0,0,0,0,0,0,0,0,0,0,0,0,0,0,0,0,0,0,0,0,0,0,0,0,0,0,0,0],"sum_hessian":[1.5323058E4,1.1620828E4,3.702229E3,2.754677E3,8.866151E3,3.6580344E3,4.419461E1,5.49102E2,2.2055752E3,1.6429352E3,7.2232163E3,2.600239E3,1.0577954E3,2.3404596E1,2.0790016E1,5.447081E2,4.3938036E0,2.1298723E3,7.5702705E1,5.282222E2,1.114713E3,6.4791597E3,7.4405646E2,1.435152E2,2.4567239E3,5.3022816E1,1.0047726E3,1.7009431E0,1.9089073E1,1.0151485E1,5.3455664E2,1.539294E3,5.905784E2,3.400041E1,4.17023E1,5.2347723E2,4.74494E0,6.399705E3,7.9454544E1,3.3903476E2,4.0502167E2,1.41437E2,2.0781996E0,3.6427094E1,1.6595722E1,1.0595121E0,1.0037131E3],"tree_param":{"num_deleted":"0","num_feature":"10","num_nodes":"47","size_leaf_vector":"1"}},{"base_weights":[7.158617E-3,3.2463133E-1,-1.0179756E0,-6.223511E-1,6.218547E-1,-1.0289438E0,-1.1005042E-1,-8.160078E-2,-7.6590997E-1,8.565302E-1,4.8672482E-1,-1.0401543E0,-9.0392876E-1,-1.0201277E-1,9.085928E-1,-1.16216384E-1,-6.585243E-2,-9.270758E-1,-5.98556E-1,8.573169E-1,-5.913369E-2,-6.679773E-1,7.356789E-1,-1.0486625E0,-8.656678E-1,6.833767E-1,-1.0333861E0,2.9474616E-3,9.8918974E-2,-1.0011535E-1,-4.754327E-3,-9.94719E-2,1.8240896E-1,-8.472112E-2,-2.4110835E-2,8.954378E-2,8.49784E-2,-4.1863617E-2,-1.2514298E-1,3.966729E-2,9.780527E-2,-6.932492E-2,-1.05091035E-1,-9.940126E-2,9.7077176E-2,9.512406E-2,-7.678673E-2,-1.7907387E-2,-1.0364576E-1],"categories":[],"categories_nodes":[],"categories_segments":[],"categories_sizes":[],"default_left":[0,0,0,0,0,0,0,0,0,0,0,0,0,0,0,0,0,0,0,0,0,0,0,0,0,0,0,0,0,0,0,0,0,0,0,0,0,0,0,0,0,0,0,0,0,0,0,0,0],"id":23,"left_children":[1,3,5,7,9,11,13,15,17,19,21,23,25,-1,27,-1,29,31,33,35,-1,37,39,41,43,45,47,-1,-1,-1,-1,-1,-1,-1,-1,-1,-1,-1,-1,-1,-1,-1,-1,-1,-1,-1,-1,-1,-1],"loss_changes":[4.6593267E3,3.0771362E3,3.3598633E1,2.0269073E2,2.6343604E2,3.7470703E0,3.9424957E1,9.266547E0,5.51084E1,3.9685059E0,1.519E3,3.6396484E0,5.8836258E1,0E0,1.3967133E0,0E0,9.237597E0,1.9712347E2,9.0033936E1,1.11572266E-1,0E0,1.3584924E2,3.5670215E2,1.6005859E0,3.588044E1,9.2569E0,5.017395E-1,0E0,0E0,0E0,0E0,0E0,0E0,0E0,0E0,0E0,0E0,0E0,0E0,0E0,0E0,0E0,0E0,0E0,0E0,0E0,0E0,0E0,0E0],"parents":[2147483647,0,0,1,1,2,2,3,3,4,4,5,5,6,6,7,7,8,8,9,9,10,10,11,11,12,12,14,14,16,16,17,17,18,18,19,19,21,21,22,22,23,23,24,24,25,25,26,26],"right_children":[2,4,6,8,10,12,14,16,18,20,22,24,26,-1,28,-1,30,32,34,36,-1,38,40,42,44,46,48,-1,-1,-1,-1,-1,-1,-1,-1,-1,-1,-1,-1,-1,-1,-1,-1,-1,-1,-1,-1,-1,-1],"split_conditions":[1.5E1,1.2E1,2.3133333E8,2E0,2E0,6.48E2,1.7E1,2E0,2E0,3E0,4E0,3.7E7,6.66E2,-1.0201277E-1,2E0,-1.16216384E-1,6E0,2.49351E5,1.8633541E4,1E0,-5.913369E-2,3E0,2.6666666E4,2E0,2.97E2,6.743333E2,2.068795E-1,2.9474616E-3,9.8918974E-2,-1.0011535E-1,-4.754327E-3,-9.94719E-2,1.8240896E-1,-8.472112E-2,-2.4110835E-2,8.954378E-2,8.49784E-2,-4.1863617E-2,-1.2514298E-1,3.966729E-2,9.780527E-2,-6.932492E-2,-1.05091035E-1,-9.940126E-2,9.7077176E-2,9.512406E-2,-7.678673E-2,-1.7907387E-2,-1.0364576E-1],"split_indices":[4,3,5,0,0,4,9,1,1,1,0,5,4,0,0,0,9,0,6,0,0,0,6,1,4,8,6,0,0,0,0,0,0,0,0,0,0,0,0,0,0,0,0,0,0,0,0,0,0],"split_type":[0,0,0,0,0,0,0,0,0,0,0,0,0,0,0,0,0,0,0,0,0,0,0,0,0,0,0,0,0,0,0,0,0,0,0,0,0,0,0,0,0,0,0,0,0,0,0,0,0],"sum_hessian":[1.4314458E4,1.0930184E4,3.384274E3,2.610807E3,8.319377E3,3.343746E3,4.052777E1,5.480412E2,2.0627656E3,3.0380173E3,5.28136E3,3.061859E3,2.8188733E2,2.1403751E1,1.9124018E1,6.8268247E0,5.4121436E2,1.0484979E3,1.0142677E3,3.0367751E3,1.2421614E0,9.364096E2,4.34495E3,2.914722E3,1.4713687E2,2.0933855E1,2.6095346E2,1.7207271E0,1.7403292E1,9.360574E0,5.3185376E2,1.02396014E3,2.4537771E1,5.9735376E2,4.1691394E2,4.8162152E2,2.5551536E3,6.5724884E2,2.791608E2,1.8124829E3,2.532467E3,2.0262203E1,2.8944597E3,1.3795427E2,9.182598E0,1.7962885E1,2.9709706E0,1.1472849E0,2.5980618E2],"tree_param":{"num_deleted":"0","num_feature":"10","num_nodes":"49","size_leaf_vector":"1"}},{"base_weights":[6.8431655E-3,3.1031677E-1,-1.0089101E0,-5.911846E-1,5.954628E-1,-1.0198447E0,-1.0823695E-1,-7.412705E-2,-7.369693E-1,9.950927E-1,5.065309E-1,-1.0450468E0,-9.575177E-1,-1.0096196E-1,8.937452E-1,-5.7834968E-2,-1.019732E-1,-9.072413E-1,-5.6588304E-1,8.5368437E-1,1.0588129E-1,-5.608902E-1,6.434901E-1,-8.3808726E-1,-1.05691396E-1,-3.5282025E-1,-9.914787E-1,3.214653E-5,9.780186E-2,-9.838003E-2,-4.0933616E-3,1.3886088E-1,-9.83531E-2,-1.01872854E-1,-3.5657607E-2,8.7915905E-2,-1.3065514E-1,-1.3819386E-1,1.952206E-2,9.814148E-2,4.138999E-2,-9.156541E-2,2.7544138E-1,2.062922E-1,-5.0220013E-2,1.3025545E-1,-9.959996E-2],"categories":[],"categories_nodes":[],"categories_segments":[],"categories_sizes":[],"default_left":[0,0,0,0,0,0,0,0,0,0,0,0,0,0,0,0,0,0,0,0,0,0,0,0,0,0,0,0,0,0,0,0,0,0,0,0,0,0,0,0,0,0,0,0,0,0,0],"id":24,"left_children":[1,3,5,7,9,11,13,15,17,19,21,23,25,-1,27,29,-1,31,33,35,-1,37,39,41,-1,43,45,-1,-1,-1,-1,-1,-1,-1,-1,-1,-1,-1,-1,-1,-1,-1,-1,-1,-1,-1,-1],"loss_changes":[4.1402314E3,2.6587334E3,3.031836E1,1.8730133E2,2.7873193E2,3.7941895E0,3.5384754E1,8.37995E0,5.5964478E1,1.1973511E1,9.4021106E2,4.4257812E0,1.7944824E1,0E0,1.4009542E0,8.40381E0,0E0,1.7126575E2,9.15502E1,2.5863617E1,0E0,4.5445276E2,4.4168604E2,3.6550064E1,0E0,1.8690828E1,1.003949E1,0E0,0E0,0E0,0E0,0E0,0E0,0E0,0E0,0E0,0E0,0E0,0E0,0E0,0E0,0E0,0E0,0E0,0E0,0E0,0E0],"parents":[2147483647,0,0,1,1,2,2,3,3,4,4,5,5,6,6,7,7,8,8,9,9,10,10,11,11,12,12,14,14,15,15,17,17,18,18,19,19,21,21,22,22,23,23,25,25,26,26],"right_children":[2,4,6,8,10,12,14,16,18,20,22,24,26,-1,28,30,-1,32,34,36,-1,38,40,42,-1,44,46,-1,-1,-1,-1,-1,-1,-1,-1,-1,-1,-1,-1,-1,-1,-1,-1,-1,-1,-1,-1],"split_conditions":[1.5E1,1.2E1,2.3133333E8,2E0,4.209464E-1,5.2E1,1.7E1,3E6,2E0,3E0,2.0134229E4,2.9E1,2.0536E4,-1.0096196E-1,7.02E2,6E0,-1.019732E-1,1.3128787E1,1.5E1,1E0,1.0588129E-1,2.4E1,5.657895E5,3.1E7,-1.05691396E-1,5.3E1,7.2E1,3.214653E-5,9.780186E-2,-9.838003E-2,-4.0933616E-3,1.3886088E-1,-9.83531E-2,-1.01872854E-1,-3.5657607E-2,8.7915905E-2,-1.3065514E-1,-1.3819386E-1,1.952206E-2,9.814148E-2,4.138999E-2,-9.156541E-2,2.7544138E-1,2.062922E-1,-5.0220013E-2,1.3025545E-1,-9.959996E-2],"split_indices":[4,3,5,0,6,4,9,6,1,1,6,4,0,0,3,9,0,6,0,0,0,3,5,5,0,4,3,0,0,0,0,0,0,0,0,0,0,0,0,0,0,0,0,0,0,0,0],"split_type":[0,0,0,0,0,0,0,0,0,0,0,0,0,0,0,0,0,0,0,0,0,0,0,0,0,0,0,0,0,0,0,0,0,0,0,0,0,0,0,0,0,0,0,0,0,0,0],"sum_hessian":[1.3429205E4,1.0340499E4,3.088706E3,2.4845176E3,7.8559814E3,3.0515266E3,3.7179348E1,5.4677325E2,1.9377443E3,1.4281538E3,6.4278276E3,2.1616755E3,8.8985114E2,1.956819E1,1.7611156E1,5.385555E2,8.217754E0,9.690267E2,9.6871765E2,4.481076E2,9.8004626E2,7.306049E2,5.697223E3,1.2111338E2,2.0405623E3,4.792387E1,8.4192725E2,1.6045315E0,1.6006624E1,8.628388E0,5.2992706E2,3.0611374E1,9.384153E2,3.0499008E2,6.6372754E2,4.4347098E2,4.6366196E0,3.4986478E2,3.8074014E2,2.303507E3,3.3937158E3,1.1928302E2,1.830356E0,2.0448616E0,4.587901E1,1.0912325E0,8.40836E2],"tree_param":{"num_deleted":"0","num_feature":"10","num_nodes":"47","size_leaf_vector":"1"}},{"base_weights":[6.3978224E-3,2.9662448E-1,-9.985506E-1,-5.6070477E-1,5.707735E-1,-1.0094211E0,-1.0651033E-1,-6.737706E-2,-7.0819813E-1,8.250982E-1,4.257153E-1,-1.0228891E0,-8.6211336E-1,-9.994585E-2,8.7894833E-1,-5.5213183E-2,-1.3322085E-1,-8.87491E-1,-5.341154E-1,8.259587E-2,-5.8658786E-2,7.038545E-1,-5.9638906E-1,-1.0328553E0,-8.2428813E-1,7.175723E-1,-1.0144751E0,-1.6436157E-3,9.727406E-2,2.5710884E-2,-1.0592393E-2,1.1381588E-1,-9.677669E-2,-8.038258E-2,-1.4937005E-2,3.5635494E-2,9.8257385E-2,-6.598593E-2,1.0019932E-1,-8.308264E-2,-1.0391634E-1,-9.694063E-2,9.2400946E-2,9.5632575E-2,-8.938526E-2,-1.3764947E-2,-1.01817586E-1],"categories":[],"categories_nodes":[],"categories_segments":[],"categories_sizes":[],"default_left":[0,0,0,0,0,0,0,0,0,0,0,0,0,0,0,0,0,0,0,0,0,0,0,0,0,0,0,0,0,0,0,0,0,0,0,0,0,0,0,0,0,0,0,0,0,0,0],"id":25,"left_children":[1,3,5,7,9,11,13,15,17,19,21,23,25,-1,27,29,-1,31,33,-1,-1,35,37,39,41,43,45,-1,-1,-1,-1,-1,-1,-1,-1,-1,-1,-1,-1,-1,-1,-1,-1,-1,-1,-1,-1],"loss_changes":[3.6746968E3,2.2979985E3,2.7269287E1,1.7233582E2,2.7293408E2,4.6516113E0,3.1772526E1,8.332798E0,5.6447998E1,3.7513428E0,1.3420483E3,4.196289E0,5.849321E1,0E0,1.4622688E0,8.615098E0,0E0,1.4694897E2,9.615997E1,0E0,0E0,3.5900208E2,1.0313089E2,2.2260742E0,3.3068153E1,9.202775E0,5.7147217E-1,0E0,0E0,0E0,0E0,0E0,0E0,0E0,0E0,0E0,0E0,0E0,0E0,0E0,0E0,0E0,0E0,0E0,0E0,0E0,0E0],"parents":[2147483647,0,0,1,1,2,2,3,3,4,4,5,5,6,6,7,7,8,8,9,9,10,10,11,11,12,12,14,14,15,15,17,17,18,18,21,21,22,22,23,23,24,24,25,25,26,26],"right_children":[2,4,6,8,10,12,14,16,18,20,22,24,26,-1,28,30,-1,32,34,-1,-1,36,38,40,42,44,46,-1,-1,-1,-1,-1,-1,-1,-1,-1,-1,-1,-1,-1,-1,-1,-1,-1,-1,-1,-1],"split_conditions":[1.5E1,1.2E1,2.3133333E8,2E0,2E0,6.48E2,1.7E1,2E0,2E0,3E0,5.657895E5,3.7E7,6.66E2,-9.994585E-2,2E0,1E0,-1.3322085E-1,1.3128787E1,1.8633541E4,8.259587E-2,-5.8658786E-2,2.6666666E4,1E0,1.6190508E1,2.97E2,1.096434E3,2.068795E-1,-1.6436157E-3,9.727406E-2,2.5710884E-2,-1.0592393E-2,1.1381588E-1,-9.677669E-2,-8.038258E-2,-1.4937005E-2,3.5635494E-2,9.8257385E-2,-6.598593E-2,1.0019932E-1,-8.308264E-2,-1.0391634E-1,-9.694063E-2,9.2400946E-2,9.5632575E-2,-8.938526E-2,-1.3764947E-2,-1.01817586E-1],"split_indices":[4,3,5,0,0,4,9,3,1,1,5,5,4,0,0,0,0,6,6,0,0,6,2,5,4,5,6,0,0,0,0,0,0,0,0,0,0,0,0,0,0,0,0,0,0,0,0],"split_type":[0,0,0,0,0,0,0,0,0,0,0,0,0,0,0,0,0,0,0,0,0,0,0,0,0,0,0,0,0,0,0,0,0,0,0,0,0,0,0,0,0,0,0,0,0,0,0],"sum_hessian":[1.259711E4,9.77486E3,2.8222507E3,2.3681245E3,7.4067354E3,2.7881426E3,3.4108337E1,5.4539026E2,1.8227344E3,2.6884658E3,4.7182695E3,2.5491377E3,2.3900482E2,1.7886623E1,1.6221712E1,5.412289E2,4.1613436E0,8.959112E2,9.268232E2,2.6872427E3,1.2230297E0,3.7092144E3,1.0090552E3,2.4233296E3,1.25807945E2,2.0698046E1,2.1830678E2,1.6163204E0,1.4605392E1,7.5033775E1,4.661951E2,3.3648956E1,8.6226227E2,5.4422595E2,3.8259726E2,1.651922E3,2.0572922E3,9.7108167E2,3.797354E1,7.739262E1,2.345937E3,1.1657694E2,9.231003E0,1.8381172E1,2.3168747E0,1.0780373E0,2.1722874E2],"tree_param":{"num_deleted":"0","num_feature":"10","num_nodes":"47","size_leaf_vector":"1"}},{"base_weights":[6.184906E-3,2.8251302E-1,-9.902506E-1,-5.3046435E-1,5.4443705E-1,-1.0011069E0,-1.04779445E-1,-6.097988E-2,-6.7911106E-1,9.798729E-1,4.5033267E-1,-1.0311269E0,-9.279126E-1,-9.895429E-2,8.633806E-1,-1.10598385E-1,-4.713965E-2,-7.1854496E-1,2.3822904E-1,8.176526E-1,1.05077304E-1,5.9095776E-1,-5.9659404E-1,-7.868711E-1,-1.0454327E-1,-2.8624275E-1,-9.6717113E-1,-4.1975924E-3,9.615705E-2,-9.658098E-2,-3.1650593E-3,-8.565637E-2,-4.154703E-2,-7.325155E-2,8.749487E-2,8.4564514E-2,-1.2569007E-1,9.117668E-2,3.8539514E-2,-4.8492685E-1,-4.5253392E-2,-1.0085875E-1,8.815313E-2,1.9248389E-1,-4.4337295E-2,1.2733173E-1,-9.725156E-2],"categories":[],"categories_nodes":[],"categories_segments":[],"categories_sizes":[],"default_left":[0,0,0,0,0,0,0,0,0,0,0,0,0,0,0,0,0,0,0,0,0,0,0,0,0,0,0,0,0,0,0,0,0,0,0,0,0,0,0,0,0,0,0,0,0,0,0],"id":26,"left_children":[1,3,5,7,9,11,13,15,17,19,21,23,25,-1,27,-1,29,31,33,35,-1,37,39,41,-1,43,45,-1,-1,-1,-1,-1,-1,-1,-1,-1,-1,-1,-1,-1,-1,-1,-1,-1,-1,-1,-1],"loss_changes":[3.266195E3,1.9778152E3,2.4652344E1,1.5791925E2,2.8739307E2,4.633301E0,2.8530792E1,7.8361745E0,6.2356506E1,1.3488281E1,8.510051E2,5.4500732E0,1.861499E1,0E0,1.4593258E0,0E0,7.6436644E0,6.859857E1,4.4897797E1,2.335675E1,0E0,3.3559534E2,4.1727948E2,3.912532E1,0E0,1.6368845E1,9.695557E0,0E0,0E0,0E0,0E0,0E0,0E0,0E0,0E0,0E0,0E0,0E0,0E0,0E0,0E0,0E0,0E0,0E0,0E0,0E0,0E0],"parents":[2147483647,0,0,1,1,2,2,3,3,4,4,5,5,6,6,7,7,8,8,9,9,10,10,11,11,12,12,14,14,16,16,17,17,18,18,19,19,21,21,22,22,23,23,25,25,26,26],"right_children":[2,4,6,8,10,12,14,16,18,20,22,24,26,-1,28,-1,30,32,34,36,-1,38,40,42,-1,44,46,-1,-1,-1,-1,-1,-1,-1,-1,-1,-1,-1,-1,-1,-1,-1,-1,-1,-1,-1,-1],"split_conditions":[1.5E1,1.2E1,2.3133333E8,2E0,4.209464E-1,5.2E1,1.7E1,2E0,1.0546492E7,3E0,3E0,2.9E1,2.0536E4,-9.895429E-2,7.02E2,-1.10598385E-1,6E0,2.9850746E4,6E0,1E0,1.05077304E-1,5.657895E5,2.3870363E0,2.8E1,-1.0454327E-1,5.3E1,7.2E1,-4.1975924E-3,9.615705E-2,-9.658098E-2,-3.1650593E-3,-8.565637E-2,-4.154703E-2,-7.325155E-2,8.749487E-2,8.4564514E-2,-1.2569007E-1,9.117668E-2,3.8539514E-2,-4.8492685E-1,-4.5253392E-2,-1.0085875E-1,8.815313E-2,1.9248389E-1,-4.4337295E-2,1.2733173E-1,-9.725156E-2],"split_indices":[4,3,5,0,6,4,9,1,7,1,1,4,0,0,3,0,9,6,9,0,0,5,5,4,0,4,3,0,0,0,0,0,0,0,0,0,0,0,0,0,0,0,0,0,0,0,0],"split_type":[0,0,0,0,0,0,0,0,0,0,0,0,0,0,0,0,0,0,0,0,0,0,0,0,0,0,0,0,0,0,0,0,0,0,0,0,0,0,0,0,0,0,0,0,0,0,0],"sum_hessian":[1.1860255E4,9.285851E3,2.5744043E3,2.2624575E3,7.023393E3,2.5430942E3,3.130992E1,5.444094E2,1.718048E3,1.2464515E3,5.776942E3,1.794149E3,7.489453E2,1.634802E1,1.49619E1,6.084568E0,5.383249E2,1.6474456E3,7.060241E1,3.8290125E2,8.635503E2,5.0932437E3,6.836981E2,1.0236567E2,1.6917833E3,4.3657993E1,7.0528735E2,1.5199308E0,1.3441968E1,7.9085255E0,5.304164E2,1.1307028E3,5.1674286E2,2.7906155E1,4.269625E1,3.7838794E2,4.5133224E0,1.98771E3,3.1055337E3,2.133138E1,6.623667E2,9.070697E1,1.1658703E1,2.1502635E0,4.150773E1,1.1137894E0,7.041735E2],"tree_param":{"num_deleted":"0","num_feature":"10","num_nodes":"47","size_leaf_vector":"1"}},{"base_weights":[5.7635964E-3,2.6830012E-1,-9.801757E-1,-5.020513E-1,5.1754785E-1,-9.9097717E-1,-1.03130355E-1,-8.515957E-1,-3.0405372E-1,4.3816182E-1,1.0512515E-1,-1.0071163E0,-8.18353E-1,-9.797817E-2,8.477748E-1,-9.365057E-1,1.2172295E0,-6.3850366E-2,-8.0033296E-1,5.8089155E-1,-7.221566E-1,-7.6465255E-1,-1.0181463E0,7.4588037E-1,-9.967325E-1,-5.7561207E-3,9.561509E-2,-1.0163855E-1,-5.660954E-2,2.0023346E-1,-1.049005E-1,2.1828229E-2,-9.5878385E-2,-9.841745E-2,2.2469152E-2,9.297653E-2,3.3798877E-2,-1.3425264E-1,-4.165856E-3,-8.703969E-2,2.6941264E-1,-5.478109E-2,-1.02133706E-1,9.572934E-2,-8.3222866E-2,-6.308029E-2,-1.01583295E-1],"categories":[],"categories_nodes":[],"categories_segments":[],"categories_sizes":[],"default_left":[0,0,0,0,0,0,0,0,0,0,0,0,0,0,0,0,0,0,0,0,0,0,0,0,0,0,0,0,0,0,0,0,0,0,0,0,0,0,0,0,0,0,0,0,0,0,0],"id":27,"left_children":[1,3,5,7,9,11,13,15,17,19,-1,21,23,-1,25,27,29,31,33,35,37,39,41,43,45,-1,-1,-1,-1,-1,-1,-1,-1,-1,-1,-1,-1,-1,-1,-1,-1,-1,-1,-1,-1,-1,-1],"loss_changes":[2.896814E3,1.6972136E3,2.2192139E1,1.4930127E2,2.8247363E2,5.6523438E0,2.5628155E1,1.3831335E2,1.6458807E2,9.634436E2,0E0,4.8952637E0,5.769008E1,0E0,1.5076895E0,2.1635498E1,5.7649647E1,2.3546626E2,8.5088165E1,4.3852917E2,2.690238E2,3.7576416E1,2.4812012E0,7.957547E0,6.426544E-1,0E0,0E0,0E0,0E0,0E0,0E0,0E0,0E0,0E0,0E0,0E0,0E0,0E0,0E0,0E0,0E0,0E0,0E0,0E0,0E0,0E0,0E0],"parents":[2147483647,0,0,1,1,2,2,3,3,4,4,5,5,6,6,7,7,8,8,9,9,11,11,12,12,14,14,15,15,16,16,17,17,18,18,19,19,20,20,21,21,22,22,23,23,24,24],"right_children":[2,4,6,8,10,12,14,16,18,20,-1,22,24,-1,26,28,30,32,34,36,38,40,42,44,46,-1,-1,-1,-1,-1,-1,-1,-1,-1,-1,-1,-1,-1,-1,-1,-1,-1,-1,-1,-1,-1,-1],"split_conditions":[1.5E1,1.2E1,2.3133333E8,2E0,1.0180403E7,6.48E2,1.7E1,2.49351E5,3E0,1.96E2,1.0512515E-1,2.9E1,6.66E2,-9.797817E-2,2E0,3E0,2E0,2.15E2,1.0546492E7,5.657895E5,2.4E1,4.99725E5,2E0,1.096434E3,2.76E3,-5.7561207E-3,9.561509E-2,-1.0163855E-1,-5.660954E-2,2.0023346E-1,-1.049005E-1,2.1828229E-2,-9.5878385E-2,-9.841745E-2,2.2469152E-2,9.297653E-2,3.3798877E-2,-1.3425264E-1,-4.165856E-3,-8.703969E-2,2.6941264E-1,-5.478109E-2,-1.02133706E-1,9.572934E-2,-8.3222866E-2,-6.308029E-2,-1.01583295E-1],"split_indices":[4,3,5,1,7,4,9,0,1,0,0,4,4,0,0,2,3,0,7,5,3,0,1,5,3,0,0,0,0,0,0,0,0,0,0,0,0,0,0,0,0,0,0,0,0,0,0],"split_type":[0,0,0,0,0,0,0,0,0,0,0,0,0,0,0,0,0,0,0,0,0,0,0,0,0,0,0,0,0,0,0,0,0,0,0,0,0,0,0,0,0,0,0,0,0,0,0],"sum_hessian":[1.1189289E4,8.836917E3,2.3523716E3,2.1599946E3,6.6769224E3,2.3236245E3,2.8747068E1,7.798856E2,1.3801091E3,5.8139453E3,8.6297705E2,2.1205347E3,2.0308998E2,1.4941732E1,1.3805336E1,7.496648E2,3.0220875E1,9.307479E2,4.4936118E2,5.177558E3,6.3638727E2,9.532767E1,2.0252069E3,2.0463285E1,1.8262671E2,1.5260584E0,1.2279278E1,6.1524255E2,1.3442224E2,2.2531576E1,7.6892996E0,7.082305E2,2.2251743E2,3.8105716E2,6.830401E1,2.1240388E3,3.053519E3,3.3239215E2,3.0399515E2,9.322585E1,2.101816E0,1.4809963E1,2.010397E3,1.8392681E1,2.0706034E0,1.0747587E1,1.7187912E2],"tree_param":{"num_deleted":"0","num_feature":"10","num_nodes":"47","size_leaf_vector":"1"}},{"base_weights":[5.160489E-3,2.5526652E-1,-9.7171956E-1,-4.7719124E-1,4.9344E-1,-9.8251027E-1,-1.01469785E-1,-8.3171654E-1,-2.8483212E-1,7.8121406E-1,3.292682E-1,-1.0190414E0,-8.948844E-1,-9.700926E-2,8.3133286E-1,9.3656075E-1,-9.263273E-1,-5.9466362E-2,-7.764534E-1,7.821365E-2,-5.6786776E-2,6.39301E-1,-6.100002E-1,-7.41973E-1,-1.0360285E-1,-1.8177189E-1,-9.4264966E-1,-7.962243E-3,9.447726E-2,-9.118428E-2,2.0578304E-1,-1.013868E-1,-5.4681804E-2,1.9542923E-2,-9.441991E-2,-9.679052E-2,2.0179348E-2,3.0048985E-2,9.633371E-2,-6.6627435E-2,9.4412714E-2,-9.927459E-2,8.152163E-2,-6.610098E-2,6.650563E-2,1.2325336E-1,-9.489519E-2],"categories":[],"categories_nodes":[],"categories_segments":[],"categories_sizes":[],"default_left":[0,0,0,0,0,0,0,0,0,0,0,0,0,0,0,0,0,0,0,0,0,0,0,0,0,0,0,0,0,0,0,0,0,0,0,0,0,0,0,0,0,0,0,0,0,0,0],"id":28,"left_children":[1,3,5,7,9,11,13,15,17,19,21,23,25,-1,27,29,31,33,35,-1,-1,37,39,41,-1,43,45,-1,-1,-1,-1,-1,-1,-1,-1,-1,-1,-1,-1,-1,-1,-1,-1,-1,-1,-1,-1],"loss_changes":[2.5738813E3,1.4634229E3,2.0065552E1,1.4015121E2,2.9878735E2,5.8774414E0,2.3019949E1,1.2191794E2,1.4797887E2,3.3044434E0,1.1745702E3,6.242676E0,2.1364838E1,0E0,1.4969444E0,7.906854E1,2.2279968E1,2.070193E2,7.883028E1,0E0,0E0,3.3258557E2,8.818698E1,3.5790325E1,0E0,1.7050459E1,9.289673E0,0E0,0E0,0E0,0E0,0E0,0E0,0E0,0E0,0E0,0E0,0E0,0E0,0E0,0E0,0E0,0E0,0E0,0E0,0E0,0E0],"parents":[2147483647,0,0,1,1,2,2,3,3,4,4,5,5,6,6,7,7,8,8,9,9,10,10,11,11,12,12,14,14,15,15,16,16,17,17,18,18,21,21,22,22,23,23,25,25,26,26],"right_children":[2,4,6,8,10,12,14,16,18,20,22,24,26,-1,28,30,32,34,36,-1,-1,38,40,42,-1,44,46,-1,-1,-1,-1,-1,-1,-1,-1,-1,-1,-1,-1,-1,-1,-1,-1,-1,-1,-1,-1],"split_conditions":[1.5E1,1.2E1,2.3133333E8,2E0,2E0,5.2E1,1.7E1,1.3128787E1,3E0,3E0,5.657895E5,2.9E1,2.0536E4,-9.700926E-2,7.02E2,2E0,3E0,2.15E2,1.0546492E7,7.821365E-2,-5.6786776E-2,2.9850746E4,1E0,2.8E1,-1.0360285E-1,1.7E1,7.2E1,-7.962243E-3,9.447726E-2,-9.118428E-2,2.0578304E-1,-1.013868E-1,-5.4681804E-2,1.9542923E-2,-9.441991E-2,-9.679052E-2,2.0179348E-2,3.0048985E-2,9.633371E-2,-6.6627435E-2,9.4412714E-2,-9.927459E-2,8.152163E-2,-6.610098E-2,6.650563E-2,1.2325336E-1,-9.489519E-2],"split_indices":[4,3,5,1,0,4,9,6,1,1,5,4,0,0,3,2,2,0,7,0,0,6,2,4,0,9,3,0,0,0,0,0,0,0,0,0,0,0,0,0,0,0,0,0,0,0,0],"split_type":[0,0,0,0,0,0,0,0,0,0,0,0,0,0,0,0,0,0,0,0,0,0,0,0,0,0,0,0,0,0,0,0,0,0,0,0,0,0,0,0,0,0,0,0,0,0,0],"sum_hessian":[1.0532709E4,8.386334E3,2.146375E3,2.0575923E3,6.328741E3,2.1199595E3,2.6415464E1,7.2256085E2,1.3350314E3,2.2975845E3,4.031157E3,1.488694E3,6.3126544E2,1.3657587E1,1.2757876E1,3.624484E1,6.86316E2,9.1616846E2,4.1886295E2,2.2964346E3,1.1498655E0,3.0310051E3,1.0001518E3,8.857988E1,1.4001141E3,3.9930355E1,5.913351E2,1.445797E0,1.1312079E1,1.37556095E1,2.2489231E1,5.563193E2,1.2999669E2,7.11858E2,2.0431049E2,3.5031387E2,6.8549065E1,1.482664E3,1.5483412E3,9.6575366E2,3.4398163E1,7.660563E1,1.197425E1,2.5639727E1,1.4290629E1,1.1462383E0,5.9018884E2],"tree_param":{"num_deleted":"0","num_feature":"10","num_nodes":"47","size_leaf_vector":"1"}},{"base_weights":[4.8734345E-3,2.4202506E-1,-9.617336E-1,-4.5278466E-1,4.68115E-1,-9.7247857E-1,-9.988366E-2,-8.118201E-1,-2.6637545E-1,3.844551E-1,1.0446117E-1,-1.0133648E0,-8.759229E-1,-9.604015E-2,8.1480354E-1,7.9560935E-1,-9.101168E-1,-5.5313934E-2,-7.524057E-1,5.2753717E-1,-7.349289E-1,-7.1926737E-1,-1.0319114E-1,-1.688314E-1,-9.2622584E-1,-9.401934E-3,9.3904555E-2,-8.793906E-2,1.6524613E-1,-1.004405E-1,-5.1836133E-2,1.7508987E-2,-9.2941485E-2,-9.516937E-2,1.8128863E-2,8.520833E-2,3.1480175E-2,-1.3943507E-1,-8.754245E-3,6.243801E-2,-1.0113429E-1,-1.04547136E-1,2.3309687E-2,1.1121219E-1,-9.329423E-2],"categories":[],"categories_nodes":[],"categories_segments":[],"categories_sizes":[],"default_left":[0,0,0,0,0,0,0,0,0,0,0,0,0,0,0,0,0,0,0,0,0,0,0,0,0,0,0,0,0,0,0,0,0,0,0,0,0,0,0,0,0,0,0,0,0],"id":29,"left_children":[1,3,5,7,9,11,13,15,17,19,-1,21,23,-1,25,27,29,31,33,35,37,39,-1,41,43,-1,-1,-1,-1,-1,-1,-1,-1,-1,-1,-1,-1,-1,-1,-1,-1,-1,-1,-1,-1],"loss_changes":[2.2836829E3,1.2568683E3,1.807837E1,1.3126242E2,2.9071863E2,6.7646484E0,2.0682442E1,1.0672803E2,1.3276181E2,8.4489386E2,0E0,6.650757E0,2.0615906E1,0E0,1.5331898E0,5.7707275E1,2.2849854E1,1.8216655E2,7.309375E1,3.225575E2,2.5516833E2,3.3480816E1,0E0,1.4341068E1,8.49881E0,0E0,0E0,0E0,0E0,0E0,0E0,0E0,0E0,0E0,0E0,0E0,0E0,0E0,0E0,0E0,0E0,0E0,0E0,0E0,0E0],"parents":[2147483647,0,0,1,1,2,2,3,3,4,4,5,5,6,6,7,7,8,8,9,9,11,11,12,12,14,14,15,15,16,16,17,17,18,18,19,19,20,20,21,21,23,23,24,24],"right_children":[2,4,6,8,10,12,14,16,18,20,-1,22,24,-1,26,28,30,32,34,36,38,40,-1,42,44,-1,-1,-1,-1,-1,-1,-1,-1,-1,-1,-1,-1,-1,-1,-1,-1,-1,-1,-1,-1],"split_conditions":[1.5E1,1.2E1,2.3133333E8,2E0,1.0180403E7,5.2E1,1.7E1,1.3128787E1,3E0,3E0,1.0446117E-1,2.9E1,2.0536E4,-9.604015E-2,2E0,2E0,3E0,2.15E2,1.0546492E7,5.657895E5,2.4E1,1.7E1,-1.0319114E-1,3E0,7.2E1,-9.401934E-3,9.3904555E-2,-8.793906E-2,1.6524613E-1,-1.004405E-1,-5.1836133E-2,1.7508987E-2,-9.2941485E-2,-9.516937E-2,1.8128863E-2,8.520833E-2,3.1480175E-2,-1.3943507E-1,-8.754245E-3,6.243801E-2,-1.0113429E-1,-1.04547136E-1,2.3309687E-2,1.1121219E-1,-9.329423E-2],"split_indices":[4,3,5,1,7,4,9,6,1,1,0,4,0,0,0,2,2,0,7,5,3,9,0,0,3,0,0,0,0,0,0,0,0,0,0,0,0,0,0,0,0,0,0,0,0],"split_type":[0,0,0,0,0,0,0,0,0,0,0,0,0,0,0,0,0,0,0,0,0,0,0,0,0,0,0,0,0,0,0,0,0,0,0,0,0,0,0,0,0,0,0,0,0],"sum_hessian":[9.960287E3,7.99862E3,1.9616671E3,1.9634939E3,6.0351265E3,1.9373848E3,2.428241E1,6.698901E2,1.2936039E3,5.2717666E3,7.6335986E2,1.3543809E3,5.830038E2,1.2485935E1,1.1796475E1,3.8195274E1,6.316948E2,9.027104E2,3.908935E2,4.674758E3,5.970088E2,8.270403E1,1.2716769E3,3.9009987E1,5.4399384E2,1.4479638E0,1.0348511E1,1.2917483E1,2.527779E1,5.0789105E2,1.2380374E2,7.150345E2,1.8767587E2,3.2212067E2,6.877282E1,1.8497703E3,2.8249875E3,2.9518365E2,3.018251E2,1.4564518E1,6.813952E1,1.1759774E1,2.7250212E1,1.2460814E0,5.4274774E2],"tree_param":{"num_deleted":"0","num_feature":"10","num_nodes":"45","size_leaf_vector":"1"}},{"base_weights":[4.1944818E-3,2.2919922E-1,-9.5133525E-1,-4.2882794E-1,4.442551E-1,-9.620328E-1,-9.8285876E-2,-7.917783E-1,-2.4868958E-1,7.478353E-2,2.7436364E-1,-9.8437816E-1,-7.342377E-1,-9.5064215E-2,7.974169E-1,6.867123E-1,-8.9356637E-1,-5.1388513E-2,-7.2812915E-1,5.9236956E-1,-5.686996E-1,-1.0000535E0,-6.9575906E-1,8.3844477E-1,-9.710139E-1,-1.1279152E-2,9.272976E-2,-8.479606E-2,1.3692589E-1,-9.950905E-2,-4.902315E-2,1.5695987E-2,-9.143304E-2,-9.6498005E-2,8.782761E-3,2.4590066E-2,9.393025E-2,-1.010774E-1,-3.717532E-2,-7.003671E-2,-1.00984655E-1,-9.028941E-2,9.757115E-2,1.03223816E-1,-8.0374435E-2,-5.404457E-2,-9.958172E-2],"categories":[],"categories_nodes":[],"categories_segments":[],"categories_sizes":[],"default_left":[0,0,0,0,0,0,0,0,0,0,0,0,0,0,0,0,0,0,0,0,0,0,0,0,0,0,0,0,0,0,0,0,0,0,0,0,0,0,0,0,0,0,0,0,0,0,0],"id":30,"left_children":[1,3,5,7,9,11,13,15,17,-1,19,21,23,-1,25,27,29,31,33,35,37,39,41,43,45,-1,-1,-1,-1,-1,-1,-1,-1,-1,-1,-1,-1,-1,-1,-1,-1,-1,-1,-1,-1,-1,-1],"loss_changes":[2.024755E3,1.0788801E3,1.6285156E1,1.22594574E2,2.9612207E2,8.300049E0,1.8580322E1,9.429349E1,1.1882888E2,0E0,9.884066E2,6.594116E0,6.124433E1,0E0,1.5145202E0,4.37527E1,2.33779E1,1.6039543E2,7.087193E1,3.2149323E2,8.755325E1,3.7713623E0,3.0756645E1,7.758565E0,9.730835E-1,0E0,0E0,0E0,0E0,0E0,0E0,0E0,0E0,0E0,0E0,0E0,0E0,0E0,0E0,0E0,0E0,0E0,0E0,0E0,0E0,0E0,0E0],"parents":[2147483647,0,0,1,1,2,2,3,3,4,4,5,5,6,6,7,7,8,8,10,10,11,11,12,12,14,14,15,15,16,16,17,17,18,18,19,19,20,20,21,21,22,22,23,23,24,24],"right_children":[2,4,6,8,10,12,14,16,18,-1,20,22,24,-1,26,28,30,32,34,36,38,40,42,44,46,-1,-1,-1,-1,-1,-1,-1,-1,-1,-1,-1,-1,-1,-1,-1,-1,-1,-1,-1,-1,-1,-1],"split_conditions":[1.5E1,1.2E1,2.3133333E8,2E0,2E0,6.48E2,1.7E1,1.3128787E1,3E0,7.478353E-2,5.657895E5,3.7E7,6.66E2,-9.5064215E-2,7.02E2,2E0,3E0,2.15E2,6.593877E7,2.6666666E4,7.5E5,1.6190508E1,2.97E2,2.4695008E7,2.76E3,-1.1279152E-2,9.272976E-2,-8.479606E-2,1.3692589E-1,-9.950905E-2,-4.902315E-2,1.5695987E-2,-9.143304E-2,-9.6498005E-2,8.782761E-3,2.4590066E-2,9.393025E-2,-1.010774E-1,-3.717532E-2,-7.003671E-2,-1.00984655E-1,-9.028941E-2,9.757115E-2,1.03223816E-1,-8.0374435E-2,-5.404457E-2,-9.958172E-2],"split_indices":[4,3,5,1,0,4,9,6,1,0,5,5,4,0,3,2,2,0,0,6,6,5,4,0,3,0,0,0,0,0,0,0,0,0,0,0,0,0,0,0,0,0,0,0,0,0,0],"split_type":[0,0,0,0,0,0,0,0,0,0,0,0,0,0,0,0,0,0,0,0,0,0,0,0,0,0,0,0,0,0,0,0,0,0,0,0,0,0,0,0,0,0,0,0,0,0,0],"sum_hessian":[9.415507E3,7.621568E3,1.7939395E3,1.877083E3,5.744485E3,1.7715953E3,2.234414E1,6.2148785E2,1.2555952E3,2.0600203E3,3.6844646E3,1.6103116E3,1.6128369E2,1.1417674E1,1.0926465E1,3.9660812E1,5.81827E2,8.9031573E2,3.6527942E2,2.6755403E3,1.0089243E3,1.5250206E3,8.5291016E1,2.077222E1,1.4051147E2,1.3808683E0,9.545597E0,1.213454E1,2.7526272E1,4.6365305E2,1.18173996E2,7.1782294E2,1.7249281E2,2.8296072E2,8.23187E1,1.3395203E3,1.3360199E3,3.096772E2,6.9924713E2,5.055216E1,1.4744684E3,7.629595E1,8.995065E0,1.8911871E1,1.8603493E0,8.894704E0,1.3161678E2],"tree_param":{"num_deleted":"0","num_feature":"10","num_nodes":"47","size_leaf_vector":"1"}},{"base_weights":[3.867149E-3,2.1659492E-1,-9.434243E-1,-4.0515578E-1,4.202513E-1,-9.679955E-1,-5.610095E-1,-7.7150196E-1,-2.3161289E-1,3.3290944E-1,1.03900746E-1,-8.054036E-1,-1.008645E0,-9.060843E-1,4.6443698E-1,5.9936905E-1,-8.7658805E-1,-4.768504E-2,-7.017419E-1,4.8231575E-1,-6.9062436E-1,-2.2855434E-1,-1.0121387E0,-5.909124E-1,-1.0116338E0,2.6499423E-1,-1.032179E-1,-9.994807E-2,1.2638227E0,1.121187E-1,-1.13973536E-1,-9.858337E-2,-4.6252854E-2,1.4077827E-2,-8.9885466E-2,-9.488268E-2,7.88998E-3,8.852976E-2,2.5603676E-2,-5.1965594E-2,-3.1860694E-1,-8.491043E-2,1.4179055E-1,-3.470158E-2,-1.0197901E-1,2.3718815E-2,-9.126487E-2,-1.0254426E-1,-9.285067E-2,1.6917455E-1,8.547831E-2],"categories":[],"categories_nodes":[],"categories_segments":[],"categories_sizes":[],"default_left":[0,0,0,0,0,0,0,0,0,0,0,0,0,0,0,0,0,0,0,0,0,0,0,0,0,0,0,0,0,0,0,0,0,0,0,0,0,0,0,0,0,0,0,0,0,0,0,0,0,0,0],"id":31,"left_children":[1,3,5,7,9,11,13,15,17,19,-1,21,23,25,27,29,31,33,35,37,39,41,43,45,47,-1,-1,-1,49,-1,-1,-1,-1,-1,-1,-1,-1,-1,-1,-1,-1,-1,-1,-1,-1,-1,-1,-1,-1,-1,-1],"loss_changes":[1.7995161E3,9.2354895E2,1.4844482E1,1.1424524E2,2.965434E2,9.348389E0,3.6247364E1,8.380536E1,1.0569157E2,7.3672797E2,0E0,3.7028976E1,9.328613E-1,3.685499E1,3.1868616E1,3.9168884E1,2.3850159E1,1.4127873E2,6.638063E1,3.8300085E2,2.6021558E2,8.6745865E1,8.1518555E-1,3.1773353E0,4.4348145E-1,0E0,0E0,0E0,1.5921669E0,0E0,0E0,0E0,0E0,0E0,0E0,0E0,0E0,0E0,0E0,0E0,0E0,0E0,0E0,0E0,0E0,0E0,0E0,0E0,0E0,0E0,0E0],"parents":[2147483647,0,0,1,1,2,2,3,3,4,4,5,5,6,6,7,7,8,8,9,9,11,11,12,12,13,13,14,14,15,15,16,16,17,17,18,18,19,19,20,20,21,21,22,22,23,23,24,24,28,28],"right_children":[2,4,6,8,10,12,14,16,18,20,-1,22,24,26,28,30,32,34,36,38,40,42,44,46,48,-1,-1,-1,50,-1,-1,-1,-1,-1,-1,-1,-1,-1,-1,-1,-1,-1,-1,-1,-1,-1,-1,-1,-1,-1,-1],"split_conditions":[1.5E1,1.2E1,3.7E7,2E0,1.0180403E7,1.096434E3,1.7E1,1.3128787E1,3E0,1.72E2,1.03900746E-1,6.743333E2,2E0,2.9E1,2.15E2,2E0,3E0,2.15E2,6.593877E7,5.657895E5,9.999939E6,7.110596E6,3.2E1,9.661836E3,4.1493774E3,2.6499423E-1,-1.032179E-1,-9.994807E-2,2.3133333E8,1.121187E-1,-1.13973536E-1,-9.858337E-2,-4.6252854E-2,1.4077827E-2,-8.9885466E-2,-9.488268E-2,7.88998E-3,8.852976E-2,2.5603676E-2,-5.1965594E-2,-3.1860694E-1,-8.491043E-2,1.4179055E-1,-3.470158E-2,-1.0197901E-1,2.3718815E-2,-9.126487E-2,-1.0254426E-1,-9.285067E-2,1.6917455E-1,8.547831E-2],"split_indices":[4,3,5,1,7,5,9,6,1,0,0,8,1,4,4,3,2,0,0,5,7,0,4,6,6,0,0,0,5,0,0,0,0,0,0,0,0,0,0,0,0,0,0,0,0,0,0,0,0,0,0],"split_type":[0,0,0,0,0,0,0,0,0,0,0,0,0,0,0,0,0,0,0,0,0,0,0,0,0,0,0,0,0,0,0,0,0,0,0,0,0,0,0,0,0,0,0,0,0,0,0,0,0,0,0],"sum_hessian":[8.927914E3,7.2913164E3,1.6365975E3,1.7987753E3,5.4925415E3,1.5363513E3,1.0024617E2,5.770939E2,1.2216814E3,4.8144805E3,6.7806067E2,3.1144254E2,1.2249088E3,7.509292E1,2.5153252E1,4.0753387E1,5.3634045E2,8.7892303E2,3.4275833E2,4.201685E3,6.127957E2,8.272422E1,2.2871834E2,1.01131115E1,1.2147957E3,1.8861338E0,7.320679E1,8.795575E0,1.6357677E1,3.1620863E1,9.132526E0,4.2328098E2,1.1305952E2,7.202763E2,1.5864673E2,2.601891E2,8.256924E1,1.5098572E3,2.6918276E3,5.7463446E2,3.8161224E1,6.043179E1,2.2292427E1,3.1283152E0,2.2559001E2,2.903284E0,7.2098274E0,1.0320232E3,1.8277249E2,6.4617376E0,9.895939E0],"tree_param":{"num_deleted":"0","num_feature":"10","num_nodes":"51","size_leaf_vector":"1"}},{"base_weights":[3.5465998E-3,2.0405039E-1,-9.364097E-1,-3.819881E-1,3.9620605E-1,-9.61581E-1,-5.485829E-1,-7.504771E-1,-2.1535368E-1,7.1379685E-1,2.2271891E-1,-7.944293E-1,-1.0037163E0,-8.9295614E-1,4.5156214E-1,-8.610713E-1,5.2101016E-1,-4.4197675E-2,-6.751788E-1,7.148015E-2,-5.4241758E-2,5.4405123E-1,-5.3306866E-1,-2.2014195E-1,-1.0069882E0,-5.6708884E-1,-1.0069922E0,2.2294407E-1,-1.0271E-1,-9.8561674E-2,1.2156305E0,-9.79837E-2,-4.2217623E-2,1.10158585E-1,-8.708275E-2,5.1701136E-2,-3.1492256E-2,-9.04953E-2,1.9648472E-2,2.1866985E-2,9.273135E-2,-5.8289792E-2,9.348749E-2,-8.309183E-2,1.3053182E-1,-3.28293E-2,-1.0154047E-1,-9.280836E-2,1.4460999E-1,-1.02219835E-1,-9.1638446E-2,1.1560487E-2,1.2848885E-1],"categories":[],"categories_nodes":[],"categories_segments":[],"categories_sizes":[],"default_left":[0,0,0,0,0,0,0,0,0,0,0,0,0,0,0,0,0,0,0,0,0,0,0,0,0,0,0,0,0,0,0,0,0,0,0,0,0,0,0,0,0,0,0,0,0,0,0,0,0,0,0,0,0],"id":32,